{"learner":{"attributes":{"scikit_learn":"{\"_estimator_type\": \"classifier\"}"},"feature_names":["index","exact_title_match","redirect_match","alt_name_match","alt_names_count","redirect_names_count","num_es_results","intro_length","country_match","title_sim","context_sim_intro","context_sim_short","actor_desc_sim_intro","actor_desc_sim_short","levenshtein","lcs","best_subseq","best_lev","title_sim_norm","context_sim_intro_norm","context_sim_short_norm","actor_desc_sim_intro_norm","actor_desc_sim_short_norm","lcs_norm","levenshtein_norm","country_match_norm","exact_title_match_norm","alt_name_match_norm","redirect_match_norm"],"feature_types":["float","float","float","float","float","float","float","float","float","float","float","float","float","float","float","float","float","float","float","float","float","float","float","float","float","float","float","float","float"],"gradient_booster":{"model":{"gbtree_model_param":{"num_parallel_tree":"1","num_trees":"1000"},"iteration_indptr":[0,1,2,3,4,5,6,7,8,9,10,11,12,13,14,15,16,17,18,19,20,21,22,23,24,25,26,27,28,29,30,31,32,33,34,35,36,37,38,39,40,41,42,43,44,45,46,47,48,49,50,51,52,53,54,55,56,57,58,59,60,61,62,63,64,65,66,67,68,69,70,71,72,73,74,75,76,77,78,79,80,81,82,83,84,85,86,87,88,89,90,91,92,93,94,95,96,97,98,99,100,101,102,103,104,105,106,107,108,109,110,111,112,113,114,115,116,117,118,119,120,121,122,123,124,125,126,127,128,129,130,131,132,133,134,135,136,137,138,139,140,141,142,143,144,145,146,147,148,149,150,151,152,153,154,155,156,157,158,159,160,161,162,163,164,165,166,167,168,169,170,171,172,173,174,175,176,177,178,179,180,181,182,183,184,185,186,187,188,189,190,191,192,193,194,195,196,197,198,199,200,201,202,203,204,205,206,207,208,209,210,211,212,213,214,215,216,217,218,219,220,221,222,223,224,225,226,227,228,229,230,231,232,233,234,235,236,237,238,239,240,241,242,243,244,245,246,247,248,249,250,251,252,253,254,255,256,257,258,259,260,261,262,263,264,265,266,267,268,269,270,271,272,273,274,275,276,277,278,279,280,281,282,283,284,285,286,287,288,289,290,291,292,293,294,295,296,297,298,299,300,301,302,303,304,305,306,307,308,309,310,311,312,313,314,315,316,317,318,319,320,321,322,323,324,325,326,327,328,329,330,331,332,333,334,335,336,337,338,339,340,341,342,343,344,345,346,347,348,349,350,351,352,353,354,355,356,357,358,359,360,361,362,363,364,365,366,367,368,369,370,371,372,373,374,375,376,377,378,379,380,381,382,383,384,385,386,387,388,389,390,391,392,393,394,395,396,397,398,399,400,401,402,403,404,405,406,407,408,409,410,411,412,413,414,415,416,417,418,419,420,421,422,423,424,425,426,427,428,429,430,431,432,433,434,435,436,437,438,439,440,441,442,443,444,445,446,447,448,449,450,451,452,453,454,455,456,457,458,459,460,461,462,463,464,465,466,467,468,469,470,471,472,473,474,475,476,477,478,479,480,481,482,483,484,485,486,487,488,489,490,491,492,493,494,495,496,497,498,499,500,501,502,503,504,505,506,507,508,509,510,511,512,513,514,515,516,517,518,519,520,521,522,523,524,525,526,527,528,529,530,531,532,533,534,535,536,537,538,539,540,541,542,543,544,545,546,547,548,549,550,551,552,553,554,555,556,557,558,559,560,561,562,563,564,565,566,567,568,569,570,571,572,573,574,575,576,577,578,579,580,581,582,583,584,585,586,587,588,589,590,591,592,593,594,595,596,597,598,599,600,601,602,603,604,605,606,607,608,609,610,611,612,613,614,615,616,617,618,619,620,621,622,623,624,625,626,627,628,629,630,631,632,633,634,635,636,637,638,639,640,641,642,643,644,645,646,647,648,649,650,651,652,653,654,655,656,657,658,659,660,661,662,663,664,665,666,667,668,669,670,671,672,673,674,675,676,677,678,679,680,681,682,683,684,685,686,687,688,689,690,691,692,693,694,695,696,697,698,699,700,701,702,703,704,705,706,707,708,709,710,711,712,713,714,715,716,717,718,719,720,721,722,723,724,725,726,727,728,729,730,731,732,733,734,735,736,737,738,739,740,741,742,743,744,745,746,747,748,749,750,751,752,753,754,755,756,757,758,759,760,761,762,763,764,765,766,767,768,769,770,771,772,773,774,775,776,777,778,779,780,781,782,783,784,785,786,787,788,789,790,791,792,793,794,795,796,797,798,799,800,801,802,803,804,805,806,807,808,809,810,811,812,813,814,815,816,817,818,819,820,821,822,823,824,825,826,827,828,829,830,831,832,833,834,835,836,837,838,839,840,841,842,843,844,845,846,847,848,849,850,851,852,853,854,855,856,857,858,859,860,861,862,863,864,865,866,867,868,869,870,871,872,873,874,875,876,877,878,879,880,881,882,883,884,885,886,887,888,889,890,891,892,893,894,895,896,897,898,899,900,901,902,903,904,905,906,907,908,909,910,911,912,913,914,915,916,917,918,919,920,921,922,923,924,925,926,927,928,929,930,931,932,933,934,935,936,937,938,939,940,941,942,943,944,945,946,947,948,949,950,951,952,953,954,955,956,957,958,959,960,961,962,963,964,965,966,967,968,969,970,971,972,973,974,975,976,977,978,979,980,981,982,983,984,985,986,987,988,989,990,991,992,993,994,995,996,997,998,999,1000],"tree_info":[0,0,0,0,0,0,0,0,0,0,0,0,0,0,0,0,0,0,0,0,0,0,0,0,0,0,0,0,0,0,0,0,0,0,0,0,0,0,0,0,0,0,0,0,0,0,0,0,0,0,0,0,0,0,0,0,0,0,0,0,0,0,0,0,0,0,0,0,0,0,0,0,0,0,0,0,0,0,0,0,0,0,0,0,0,0,0,0,0,0,0,0,0,0,0,0,0,0,0,0,0,0,0,0,0,0,0,0,0,0,0,0,0,0,0,0,0,0,0,0,0,0,0,0,0,0,0,0,0,0,0,0,0,0,0,0,0,0,0,0,0,0,0,0,0,0,0,0,0,0,0,0,0,0,0,0,0,0,0,0,0,0,0,0,0,0,0,0,0,0,0,0,0,0,0,0,0,0,0,0,0,0,0,0,0,0,0,0,0,0,0,0,0,0,0,0,0,0,0,0,0,0,0,0,0,0,0,0,0,0,0,0,0,0,0,0,0,0,0,0,0,0,0,0,0,0,0,0,0,0,0,0,0,0,0,0,0,0,0,0,0,0,0,0,0,0,0,0,0,0,0,0,0,0,0,0,0,0,0,0,0,0,0,0,0,0,0,0,0,0,0,0,0,0,0,0,0,0,0,0,0,0,0,0,0,0,0,0,0,0,0,0,0,0,0,0,0,0,0,0,0,0,0,0,0,0,0,0,0,0,0,0,0,0,0,0,0,0,0,0,0,0,0,0,0,0,0,0,0,0,0,0,0,0,0,0,0,0,0,0,0,0,0,0,0,0,0,0,0,0,0,0,0,0,0,0,0,0,0,0,0,0,0,0,0,0,0,0,0,0,0,0,0,0,0,0,0,0,0,0,0,0,0,0,0,0,0,0,0,0,0,0,0,0,0,0,0,0,0,0,0,0,0,0,0,0,0,0,0,0,0,0,0,0,0,0,0,0,0,0,0,0,0,0,0,0,0,0,0,0,0,0,0,0,0,0,0,0,0,0,0,0,0,0,0,0,0,0,0,0,0,0,0,0,0,0,0,0,0,0,0,0,0,0,0,0,0,0,0,0,0,0,0,0,0,0,0,0,0,0,0,0,0,0,0,0,0,0,0,0,0,0,0,0,0,0,0,0,0,0,0,0,0,0,0,0,0,0,0,0,0,0,0,0,0,0,0,0,0,0,0,0,0,0,0,0,0,0,0,0,0,0,0,0,0,0,0,0,0,0,0,0,0,0,0,0,0,0,0,0,0,0,0,0,0,0,0,0,0,0,0,0,0,0,0,0,0,0,0,0,0,0,0,0,0,0,0,0,0,0,0,0,0,0,0,0,0,0,0,0,0,0,0,0,0,0,0,0,0,0,0,0,0,0,0,0,0,0,0,0,0,0,0,0,0,0,0,0,0,0,0,0,0,0,0,0,0,0,0,0,0,0,0,0,0,0,0,0,0,0,0,0,0,0,0,0,0,0,0,0,0,0,0,0,0,0,0,0,0,0,0,0,0,0,0,0,0,0,0,0,0,0,0,0,0,0,0,0,0,0,0,0,0,0,0,0,0,0,0,0,0,0,0,0,0,0,0,0,0,0,0,0,0,0,0,0,0,0,0,0,0,0,0,0,0,0,0,0,0,0,0,0,0,0,0,0,0,0,0,0,0,0,0,0,0,0,0,0,0,0,0,0,0,0,0,0,0,0,0,0,0,0,0,0,0,0,0,0,0,0,0,0,0,0,0,0,0,0,0,0,0,0,0,0,0,0,0,0,0,0,0,0,0,0,0,0,0,0,0,0,0,0,0,0,0,0,0,0,0,0,0,0,0,0,0,0,0,0,0,0,0,0,0,0,0,0,0,0,0,0,0,0,0,0,0,0,0,0,0,0,0,0,0,0,0,0,0,0,0,0,0,0,0,0,0,0,0,0,0,0,0,0,0,0,0,0,0,0,0,0,0,0,0,0,0,0,0,0,0,0,0,0,0,0,0,0,0,0,0,0,0,0,0,0,0,0,0,0,0,0,0,0,0,0,0,0,0,0,0,0,0,0,0,0,0,0,0,0,0,0,0,0,0,0,0,0,0,0,0,0,0,0,0,0,0,0,0,0,0,0,0,0,0,0,0,0,0,0,0,0,0,0,0,0,0,0,0,0,0,0,0,0,0,0,0,0,0,0,0,0,0,0,0,0,0,0,0,0,0,0,0,0,0,0,0,0,0,0,0,0,0,0,0,0,0,0,0,0,0,0,0,0,0,0,0,0,0,0,0,0],"trees":[{"base_weights":[-1.2617387E-7,-5.849936E-1,5.237883E1,-7.198947E-1,1.1421333E1,4.700389E0,1.6336859E1,1.0128904E1,-8.503015E-1,1.8962506E0,2.3569939E1,-8.759494E-1,3.8482156E0,-1.4460818E-1,1.3777933E0,1.9432408E0,9.245258E0,-2.843214E-1,5.0143915E-1],"categories":[],"categories_nodes":[],"categories_segments":[],"categories_sizes":[],"default_left":[0,0,0,0,0,0,0,0,0,0,0,0,0,0,0,0,0,0,0],"id":0,"left_children":[1,3,5,7,-1,-1,-1,9,11,13,15,17,-1,-1,-1,-1,-1,-1,-1],"loss_changes":[3.288926E4,5.5629155E3,5.0904297E1,1.5065557E3,0E0,0E0,0E0,1.3554781E3,3.7857922E2,5.9509247E1,3.849497E2,1.9289374E2,0E0,0E0,0E0,0E0,0E0,0E0,0E0],"parents":[2147483647,0,0,1,1,2,2,3,3,7,7,8,8,9,9,10,10,11,11],"right_children":[2,4,6,8,-1,-1,-1,10,12,14,16,18,-1,-1,-1,-1,-1,-1,-1],"split_conditions":[1E0,1E0,6.875171E-1,1E0,1.1421333E1,4.700389E0,1.6336859E1,9.0924513E-1,5.9E1,7.899925E-1,8.3776957E-1,9.7261095E-1,3.8482156E0,-1.4460818E-1,1.3777933E0,1.9432408E0,9.245258E0,-2.843214E-1,5.0143915E-1],"split_indices":[1,2,19,0,0,0,0,18,5,19,19,19,0,0,0,0,0,0,0],"split_type":[0,0,0,0,0,0,0,0,0,0,0,0,0,0,0,0,0,0,0],"sum_hessian":[1.0713647E3,1.0605093E3,1.0855476E1,1.0577992E3,2.710105E0,1.0388736E0,9.816603E0,1.1653452E1,1.0461458E3,7.934585E0,3.7188663E0,1.0451218E3,1.0238174E0,4.652347E0,3.2822382E0,1.6712314E0,2.0476348E0,1.01708734E3,2.803453E1],"tree_param":{"num_deleted":"0","num_feature":"29","num_nodes":"19","size_leaf_vector":"1"}},{"base_weights":[-9.185953E-1,-8.7279624E-1,-7.1573844E0,-8.2041895E-1,-4.572622E0,-8.345222E-1,-5.916246E0,-8.9212364E-1,1.2085767E0,-1.8074733E0,-4.8666754E0,-1.2625234E0,3.575387E-1,-9.553852E-1,9.363736E-1,-6.119692E-1,3.33092E0,-8.230078E-1,2.5790617E-1,-2.9891616E-1,-1.1589518E-1,9.689814E-2,2.3938856E0,-2.8233916E-1,6.274457E-1,2.3921082E0,4.1529918E-1],"categories":[],"categories_nodes":[],"categories_segments":[],"categories_sizes":[],"default_left":[0,0,0,0,0,0,0,0,0,0,0,0,0,0,0,0,0,0,0,0,0,0,0,0,0,0,0],"id":1,"left_children":[1,3,5,7,9,11,-1,13,15,17,-1,-1,-1,19,21,23,25,-1,-1,-1,-1,-1,-1,-1,-1,-1,-1],"loss_changes":[2.4432617E2,1.6517297E2,4.8017783E2,1.2630798E2,3.5560797E2,4.058674E1,0E0,9.712897E1,1.1720118E2,2.9273651E1,0E0,0E0,0E0,1.8389221E1,1.1979555E2,1.6996685E1,1.14739685E2,0E0,0E0,0E0,0E0,0E0,0E0,0E0,0E0,0E0,0E0],"parents":[2147483647,0,0,1,1,2,2,3,3,4,4,5,5,7,7,8,8,9,9,13,13,14,14,15,15,16,16],"right_children":[2,4,6,8,10,12,-1,14,16,18,-1,-1,-1,20,22,24,26,-1,-1,-1,-1,-1,-1,-1,-1,-1,-1],"split_conditions":[1E0,1E0,6.690806E-1,2E1,3.032547E-1,1.381E3,-5.916246E0,9.987635E-1,7.7754146E-1,1.408E3,-4.8666754E0,-1.2625234E0,3.575387E-1,9.369122E-1,1E0,9.478704E-1,4.7E1,-8.230078E-1,2.5790617E-1,-2.9891616E-1,-1.1589518E-1,9.689814E-2,2.3938856E0,-2.8233916E-1,6.274457E-1,2.3921082E0,4.1529918E-1],"split_indices":[2,1,19,5,10,7,0,20,18,7,0,0,0,19,3,20,5,0,0,0,0,0,0,0,0,0,0],"split_type":[0,0,0,0,0,0,0,0,0,0,0,0,0,0,0,0,0,0,0,0,0,0,0,0,0,0,0],"sum_hessian":[8.759548E2,8.707028E2,5.251949E0,8.597533E2,1.0949517E1,4.2030725E0,1.0488764E0,8.3094794E2,2.880539E1,9.782662E0,1.166854E0,1.1730416E0,3.030031E0,8.036221E2,2.7325855E1,1.5888172E1,1.2917218E1,7.2204823E0,2.5621805E0,7.489113E2,5.4710762E1,2.6098827E1,1.2270277E0,1.4744787E1,1.1433852E0,2.9012537E0,1.00159645E1],"tree_param":{"num_deleted":"0","num_feature":"29","num_nodes":"27","size_leaf_vector":"1"}},{"base_weights":[-8.114956E-1,-7.470731E-1,-3.5210733E0,-8.901357E-1,3.5278875E-1,-3.3903417E-1,-1.6046566E1,-9.786897E-1,5.87804E-2,1.3164232E-2,2.9780564E0,-5.5899036E-1,1.7680261E0,-5.837468E0,-1.2314068E0,-9.9850535E-1,3.2285202E-1,1.0138317E0,-6.6470814E-1,-4.8164546E-1,1.1567438E0,8.391975E-1,5.6497684E0,3.3233788E-2,2.2673461E0,-4.8289868E-1,-2.9321712E-1,-1.0409802E-1,8.120678E-1,-1.4266327E-1,4.2853248E-1,-2.889444E-1,6.307447E-2,-2.5279626E-1,1.6228552E-1,-2.2362117E-1,5.425012E-1,-2.3579465E-2,3.075597E-1,2.329702E-1,2.1948383E0,8.393968E-1,2.7911243E-1],"categories":[],"categories_nodes":[],"categories_segments":[],"categories_sizes":[],"default_left":[0,0,0,0,0,0,0,1,0,0,0,0,0,0,0,0,0,0,0,0,0,0,0,0,0,0,0,0,0,0,0,0,0,0,0,0,0,0,0,0,0,0,0],"id":2,"left_children":[1,3,5,7,9,11,13,15,17,19,21,-1,23,-1,-1,25,27,29,31,33,35,37,39,-1,41,-1,-1,-1,-1,-1,-1,-1,-1,-1,-1,-1,-1,-1,-1,-1,-1,-1,-1],"loss_changes":[1.2549762E2,1.13328156E2,6.6324304E2,5.348831E1,7.430868E1,4.9543404E1,5.7720947E1,1.5323242E1,3.882705E1,4.2905197E1,4.98164E1,0E0,5.175232E0,0E0,0E0,5.823059E0,1.6075254E1,1.5620396E1,8.563924E0,2.0000622E1,2.9726038E1,1.1862597E0,2.7372833E1,0E0,9.355335E-1,0E0,0E0,0E0,0E0,0E0,0E0,0E0,0E0,0E0,0E0,0E0,0E0,0E0,0E0,0E0,0E0,0E0,0E0],"parents":[2147483647,0,0,1,1,2,2,3,3,4,4,5,5,6,6,7,7,8,8,9,9,10,10,12,12,15,15,16,16,17,17,18,18,19,19,20,20,21,21,22,22,24,24],"right_children":[2,4,6,8,10,12,14,16,18,20,22,-1,24,-1,-1,26,28,30,32,34,36,38,40,-1,42,-1,-1,-1,-1,-1,-1,-1,-1,-1,-1,-1,-1,-1,-1,-1,-1,-1,-1],"split_conditions":[9.999999E-1,9.369122E-1,6.945759E-1,1.5E1,1E0,1.029E3,3.9839014E-1,9.429483E-1,1E1,9.6368724E-1,2.00001E0,-5.5899036E-1,5.720486E-1,-5.837468E0,-1.2314068E0,1E0,4.6158314E-1,7.3737955E-1,1E0,6E0,3.8438207E-1,7.450733E-1,6.733582E-1,3.3233788E-2,3.354E3,-4.8289868E-1,-2.9321712E-1,-1.0409802E-1,8.120678E-1,-1.4266327E-1,4.2853248E-1,-2.889444E-1,6.307447E-2,-2.5279626E-1,1.6228552E-1,-2.2362117E-1,5.425012E-1,-2.3579465E-2,3.075597E-1,2.329702E-1,2.1948383E0,8.393968E-1,2.7911243E-1],"split_indices":[9,19,19,5,23,7,11,21,0,20,28,0,19,0,0,0,11,19,8,5,10,9,9,0,7,0,0,0,0,0,0,0,0,0,0,0,0,0,0,0,0,0,0],"split_type":[0,0,0,0,0,0,0,0,0,0,0,0,0,0,0,0,0,0,0,0,0,0,0,0,0,0,0,0,0,0,0,0,0,0,0,0,0,0,0,0,0,0,0],"sum_hessian":[7.3301556E2,7.172383E2,1.5777227E1,6.3485175E2,8.2386536E1,1.3400073E1,2.3771544E0,5.806349E2,5.4216896E1,7.383916E1,8.547379E0,7.842455E0,5.557618E0,1.3593826E0,1.0177717E0,5.7215674E2,8.478125E0,2.319573E1,3.1021164E1,5.194302E1,2.189614E1,5.4769053E0,3.0704732E0,1.5696843E0,3.9879336E0,1.6594992E1,5.5556177E2,7.28555E0,1.1925741E0,5.019073E0,1.8176657E1,2.305613E1,7.965036E0,3.852017E1,1.34228525E1,5.5501213E0,1.6346018E1,1.0202196E0,4.456686E0,1.1559551E0,1.9145182E0,2.0725558E0,1.9153779E0],"tree_param":{"num_deleted":"0","num_feature":"29","num_nodes":"43","size_leaf_vector":"1"}},{"base_weights":[-5.9773934E-1,-8.443994E-1,3.1208703E-1,-9.8225003E-1,1.4331955E-1,-2.309997E-1,1.0077662E0,-1.0112247E0,7.181021E-1,-8.9573014E-1,5.871859E-1,-9.415777E-1,5.1518536E-1,-6.67387E-1,1.2951008E0,-9.748054E-1,-1.4883807E0,-2.96022E-1,1.9065027E0,-9.4353163E-1,-7.7064396E-3,2.0402679E-1,2.0164323E0,-1.2272127E0,1.3930243E0,-5.705544E-1,1.3632467E0,6.985954E-2,-9.0147746E-1,1.3972726E0,-4.614574E-1,-2.9489806E-1,1.6932132E-2,-5.9418505E-1,2.1324651E-2,-2.0313872E-1,1.9055249E-1,1.6981293E-1,7.7849036E-1,-2.9860497E-1,-3.0326998E-2,-1.4305685E-1,2.886878E-1,-1.4849558E-1,7.2160506E-1,-3.1168234E-1,-6.2386227E-1,-1.2650892E-1,6.880342E-1,-3.0331415E-1,3.544187E-2,4.5620993E-1,-1.9814771E-1,2.164244E-2,-3.174154E-1,2.9902238E-1,5.716694E-1,-2.4292298E-1,6.34232E-2],"categories":[],"categories_nodes":[],"categories_segments":[],"categories_sizes":[],"default_left":[0,0,0,1,0,0,0,0,0,1,0,0,0,0,0,0,0,0,0,0,0,0,0,0,0,0,0,0,0,0,0,0,0,0,0,0,0,0,0,0,0,0,0,0,0,0,0,0,0,0,0,0,0,0,0,0,0,0,0],"id":3,"left_children":[1,3,5,7,9,11,13,15,17,19,21,23,25,27,29,31,33,35,37,39,-1,41,43,45,47,49,51,-1,53,55,57,-1,-1,-1,-1,-1,-1,-1,-1,-1,-1,-1,-1,-1,-1,-1,-1,-1,-1,-1,-1,-1,-1,-1,-1,-1,-1,-1,-1],"loss_changes":[1.4420723E2,6.888367E1,5.219452E1,2.2559906E1,2.9445862E1,4.1869213E1,2.9976109E1,6.1285706E0,1.0217934E1,7.7282524E-1,2.3980413E1,2.8605202E1,3.6428062E1,2.2151833E0,9.971291E0,3.501709E0,2.2426071E1,2.2710686E0,2.0587797E0,6.912174E-1,0E0,1.9167704E1,1.0277924E1,3.6914215E0,8.916756E0,5.484287E0,8.025173E0,0E0,1.2588239E0,8.149384E0,1.0167893E0,0E0,0E0,0E0,0E0,0E0,0E0,0E0,0E0,0E0,0E0,0E0,0E0,0E0,0E0,0E0,0E0,0E0,0E0,0E0,0E0,0E0,0E0,0E0,0E0,0E0,0E0,0E0,0E0],"parents":[2147483647,0,0,1,1,2,2,3,3,4,4,5,5,6,6,7,7,8,8,9,9,10,10,11,11,12,12,13,13,14,14,15,15,16,16,17,17,18,18,19,19,21,21,22,22,23,23,24,24,25,25,26,26,28,28,29,29,30,30],"right_children":[2,4,6,8,10,12,14,16,18,20,22,24,26,28,30,32,34,36,38,40,-1,42,44,46,48,50,52,-1,54,56,58,-1,-1,-1,-1,-1,-1,-1,-1,-1,-1,-1,-1,-1,-1,-1,-1,-1,-1,-1,-1,-1,-1,-1,-1,-1,-1,-1,-1],"split_conditions":[8E0,9.64682E-1,8.207368E-1,9.710108E-1,1E0,1.768E3,5.484344E-1,9.604331E-1,8.841476E-1,9.650875E-1,4E0,4.408617E-1,9.662929E-1,3E0,3.9E1,5.634446E-1,8.1E2,4.581998E-1,6.0353976E-1,5.4017156E-1,-7.7064396E-3,9.5710665E-1,3.125E-1,1E0,2.00001E0,8.1044286E-1,8.01043E-1,6.985954E-2,1.6E-1,4.053185E-1,3.5E-1,-2.9489806E-1,1.6932132E-2,-5.9418505E-1,2.1324651E-2,-2.0313872E-1,1.9055249E-1,1.6981293E-1,7.7849036E-1,-2.9860497E-1,-3.0326998E-2,-1.4305685E-1,2.886878E-1,-1.4849558E-1,7.2160506E-1,-3.1168234E-1,-6.2386227E-1,-1.2650892E-1,6.880342E-1,-3.0331415E-1,3.544187E-2,4.5620993E-1,-1.9814771E-1,2.164244E-2,-3.174154E-1,2.9902238E-1,5.716694E-1,-2.4292298E-1,6.34232E-2],"split_indices":[5,19,20,21,26,7,9,18,18,21,5,10,18,0,0,11,7,11,12,11,0,20,15,2,28,19,20,0,15,11,14,0,0,0,0,0,0,0,0,0,0,0,0,0,0,0,0,0,0,0,0,0,0,0,0,0,0,0,0],"split_type":[0,0,0,0,0,0,0,0,0,0,0,0,0,0,0,0,0,0,0,0,0,0,0,0,0,0,0,0,0,0,0,0,0,0,0,0,0,0,0,0,0,0,0,0,0,0,0,0,0,0,0,0,0,0,0,0,0,0,0],"sum_hessian":[6.404093E2,5.0387677E2,1.365325E2,4.421709E2,6.170588E1,7.705047E1,5.948203E1,4.3516086E2,7.0100245E0,1.8165089E1,4.354079E1,3.9332764E1,3.771771E1,8.515309E0,5.096672E1,4.0712933E2,2.8031523E1,4.187511E0,2.8225136E0,1.7138979E1,1.0261099E0,3.523703E1,8.30376E0,3.5467686E1,3.8650799E0,1.6684464E1,2.1033243E1,1.7583557E0,6.7569532E0,4.8358444E1,2.6082757E0,4.039686E2,3.1607492E0,2.1101032E1,6.930491E0,3.1650176E0,1.0224931E0,1.5760615E0,1.2464522E0,1.5974867E1,1.1641116E0,1.87614E1,1.647563E1,1.0769148E0,7.2268443E0,3.0868135E1,4.599548E0,1.4580934E0,2.4069865E0,9.890425E0,6.7940392E0,1.9745548E1,1.287695E0,1.0107957E0,5.7461576E0,2.8702211E1,1.9656233E1,1.584629E0,1.0236465E0],"tree_param":{"num_deleted":"0","num_feature":"29","num_nodes":"59","size_leaf_vector":"1"}},{"base_weights":[-5.4740703E-1,-7.589201E-1,4.010288E-1,-9.373896E-1,-1.1100473E-1,-9.6915436E-1,8.226682E-1,-9.945859E-1,-4.39272E-3,-3.1521273E-1,1.7638643E0,-1.6406255E0,6.418003E-1,-7.289761E-1,1.0448056E0,-9.6874356E-1,-2.3118486E0,4.325761E-1,-1.3870485E0,-5.245748E-1,1.0935562E0,2.9896963E0,-6.085538E-1,-1.8882685E0,1.5578686E-1,-2.6273647E-1,1.052579E0,-2.4307725E0,1.0739746E-1,3.8920522E-1,1.356961E0,-2.936748E-1,7.76632E-3,-1.1486512E0,-1.6706295E-1,4.5183393E-1,-1.696042E-1,-5.3644353E-1,-1.8854387E-2,-2.2076534E-1,1.973382E-1,-1.8626739E-1,6.8770576E-1,3.5602316E-2,1.2085401E0,1.165749E-1,-3.5150543E-1,-1.10203266E-1,-7.3901147E-1,-3.0556232E-1,1.8557608E-1,2.8514741E-2,4.3017408E-1,-1.0088034E0,-9.5743306E-2,-3.052727E-1,2.1511923E-1,4.2876747E-1,-4.9251508E-2,8.024066E-1,3.6376378E-1],"categories":[],"categories_nodes":[],"categories_segments":[],"categories_sizes":[],"default_left":[0,0,0,0,0,0,0,0,0,0,0,0,0,0,0,0,0,0,0,0,0,0,0,0,0,0,0,0,0,0,0,0,0,0,0,0,0,0,0,0,0,0,0,0,0,0,0,0,0,0,0,0,0,0,0,0,0,0,0,0,0],"id":4,"left_children":[1,3,5,7,9,11,13,15,17,19,21,23,25,27,29,31,33,35,37,39,41,43,45,47,-1,49,51,53,55,57,59,-1,-1,-1,-1,-1,-1,-1,-1,-1,-1,-1,-1,-1,-1,-1,-1,-1,-1,-1,-1,-1,-1,-1,-1,-1,-1,-1,-1,-1,-1],"loss_changes":[1.05789825E2,4.9652283E1,5.656968E1,1.7991669E1,3.656908E1,2.6122478E1,2.6392735E1,8.576904E0,1.2975909E1,2.584201E1,2.9128654E1,9.880489E0,3.0770137E0,1.435454E1,1.286834E1,3.1958618E0,1.2223938E1,1.8342838E1,2.6265488E0,1.9288252E1,2.4871655E1,1.8491085E1,2.7182012E0,1.234058E1,0E0,2.7310083E0,1.8292089E0,5.4307365E0,5.939863E0,1.3193628E1,5.1193085E0,0E0,0E0,0E0,0E0,0E0,0E0,0E0,0E0,0E0,0E0,0E0,0E0,0E0,0E0,0E0,0E0,0E0,0E0,0E0,0E0,0E0,0E0,0E0,0E0,0E0,0E0,0E0,0E0,0E0,0E0],"parents":[2147483647,0,0,1,1,2,2,3,3,4,4,5,5,6,6,7,7,8,8,9,9,10,10,11,11,12,12,13,13,14,14,15,15,16,16,17,17,18,18,19,19,20,20,21,21,22,22,23,23,25,25,26,26,27,27,28,28,29,29,30,30],"right_children":[2,4,6,8,10,12,14,16,18,20,22,24,26,28,30,32,34,36,38,40,42,44,46,48,-1,50,52,54,56,58,60,-1,-1,-1,-1,-1,-1,-1,-1,-1,-1,-1,-1,-1,-1,-1,-1,-1,-1,-1,-1,-1,-1,-1,-1,-1,-1,-1,-1,-1,-1],"split_conditions":[9.1133004E-1,8.882195E-1,3.58E2,2.8E1,8.846462E-1,9.089046E-1,6.408614E-1,9.8770183E-1,7E0,1E0,2.8E1,5.20083E-1,8E-1,9.14E2,2E0,6.910782E-1,1E0,9E0,3.426304E-1,1.4E1,1E0,1E0,4.6274966E-1,9.173542E-1,1.5578686E-1,4.330074E-1,3.737512E-1,1E0,2E0,1E0,7.068725E-1,-2.936748E-1,7.76632E-3,-1.1486512E0,-1.6706295E-1,4.5183393E-1,-1.696042E-1,-5.3644353E-1,-1.8854387E-2,-2.2076534E-1,1.973382E-1,-1.8626739E-1,6.8770576E-1,3.5602316E-2,1.2085401E0,1.165749E-1,-3.5150543E-1,-1.10203266E-1,-7.3901147E-1,-3.0556232E-1,1.8557608E-1,2.8514741E-2,4.3017408E-1,-1.0088034E0,-9.5743306E-2,-3.052727E-1,2.1511923E-1,4.2876747E-1,-4.9251508E-2,8.024066E-1,3.6376378E-1],"split_indices":[24,19,7,5,9,20,20,18,4,3,5,12,14,7,4,12,0,0,10,5,26,26,10,18,0,10,11,0,4,27,19,0,0,0,0,0,0,0,0,0,0,0,0,0,0,0,0,0,0,0,0,0,0,0,0,0,0,0,0,0,0],"split_type":[0,0,0,0,0,0,0,0,0,0,0,0,0,0,0,0,0,0,0,0,0,0,0,0,0,0,0,0,0,0,0,0,0,0,0,0,0,0,0,0,0,0,0,0,0,0,0,0,0,0,0,0,0,0,0,0,0,0,0,0,0],"sum_hessian":[5.248328E2,4.292946E2,9.553823E1,3.3623206E2,9.306254E1,2.2175837E1,7.336239E1,3.1674817E2,1.948389E1,8.467205E1,8.390482E0,1.56388855E1,6.5369506E0,8.901713E0,6.446068E1,3.1235574E2,4.3924346E0,1.5327114E1,4.1567764E0,7.4263176E1,1.0408875E1,5.3605094E0,3.0299723E0,1.4143091E1,1.495795E0,2.1540709E0,4.38288E0,2.3051088E0,6.596605E0,2.1516897E1,4.294378E1,3.0920914E2,3.1465871E0,1.7221282E0,2.6703067E0,7.138489E0,8.188625E0,2.9215035E0,1.235273E0,6.3323753E1,1.09394245E1,4.4816113E0,5.9272647E0,1.720241E0,3.6402683E0,1.2054464E0,1.8245261E0,4.330183E0,9.812908E0,1.0757959E0,1.078275E0,1.604141E0,2.778739E0,1.1882516E0,1.1168572E0,2.0833263E0,4.513278E0,6.923014E0,1.45938835E1,2.511012E0,4.043277E1],"tree_param":{"num_deleted":"0","num_feature":"29","num_nodes":"61","size_leaf_vector":"1"}},{"base_weights":[-4.988001E-1,-7.560847E-1,1.9699192E-1,-9.79445E-1,-2.7940055E-2,-2.4978328E-1,9.8436385E-1,-1.0405521E0,-3.7082362E-1,6.5353477E-1,-5.725577E-1,-7.303829E-1,6.181421E-1,-3.219209E-1,1.1345841E0,-1.9264753E0,-9.5461804E-1,8.9860207E-1,-3.0655983E-1,-3.064447E-1,1.0995618E0,-7.2826695E-1,1.1647035E-1,-1.0985751E0,-3.5663798E-1,-4.71495E-1,1.125721E0,4.6926498E-1,-5.030128E-1,-1.8155888E-1,1.1973044E0,-2.4214843E-1,-1.2314339E0,-2.981723E-1,1.6090888E-1,-1.7538981E-1,5.60808E-1,-4.2062333E-1,1.9657895E-1,9.180768E-2,4.621878E-1,-2.5848284E-1,1.18460596E-1,-1.3108508E-1,5.998599E-1,-2.9327664E-1,-5.7932633E-1,-2.533862E-1,7.434265E-2,-2.843899E-1,9.454765E-2,-8.671857E-2,5.148673E-1,-2.3660435E-1,3.4572935E-1,5.0772077E-1,2.5439572E-1],"categories":[],"categories_nodes":[],"categories_segments":[],"categories_sizes":[],"default_left":[0,0,0,0,0,0,0,0,0,0,0,0,0,0,0,0,0,0,0,0,0,0,0,0,0,0,0,0,0,0,0,0,0,0,0,0,0,0,0,0,0,0,0,0,0,0,0,0,0,0,0,0,0,0,0,0,0],"id":5,"left_children":[1,3,5,7,9,11,13,15,17,19,21,23,25,27,29,31,33,35,-1,37,39,41,43,45,47,49,51,53,-1,-1,55,-1,-1,-1,-1,-1,-1,-1,-1,-1,-1,-1,-1,-1,-1,-1,-1,-1,-1,-1,-1,-1,-1,-1,-1,-1,-1],"loss_changes":[7.7726776E1,5.1460327E1,4.1677742E1,8.623047E0,2.8337626E1,3.2127457E1,8.77166E0,1.48776245E1,2.0468306E1,1.4866723E1,4.6349125E0,6.3969803E0,1.5798681E1,6.357789E0,4.9412117E0,4.1631126E1,1.2374725E1,1.3405634E1,0E0,1.3085486E1,7.7140217E0,5.541521E0,9.918832E0,5.6686974E-1,7.867284E0,3.851104E0,1.6476181E1,4.4001474E0,0E0,0E0,5.0734367E0,0E0,0E0,0E0,0E0,0E0,0E0,0E0,0E0,0E0,0E0,0E0,0E0,0E0,0E0,0E0,0E0,0E0,0E0,0E0,0E0,0E0,0E0,0E0,0E0,0E0,0E0],"parents":[2147483647,0,0,1,1,2,2,3,3,4,4,5,5,6,6,7,7,8,8,9,9,10,10,11,11,12,12,13,13,14,14,15,15,16,16,17,17,19,19,20,20,21,21,22,22,23,23,24,24,25,25,26,26,27,27,30,30],"right_children":[2,4,6,8,10,12,14,16,18,20,22,24,26,28,30,32,34,36,-1,38,40,42,44,46,48,50,52,54,-1,-1,56,-1,-1,-1,-1,-1,-1,-1,-1,-1,-1,-1,-1,-1,-1,-1,-1,-1,-1,-1,-1,-1,-1,-1,-1,-1,-1],"split_conditions":[1.141E3,9.075392E-1,8.5227275E-1,9.24904E-1,6E0,8.626114E-1,8.3215386E-1,1E0,5E0,2.96E2,5.1856905E-1,8E0,2.00001E0,1E0,5.2447355E-1,8.4384245E-1,9.8770183E-1,4E0,-3.0655983E-1,9.289825E-1,2E0,1E1,7.777778E-1,9.3396926E-1,8.1044286E-1,2.00001E0,2.00001E0,7.596589E-1,-5.030128E-1,-1.8155888E-1,9.999999E-1,-2.4214843E-1,-1.2314339E0,-2.981723E-1,1.6090888E-1,-1.7538981E-1,5.60808E-1,-4.2062333E-1,1.9657895E-1,9.180768E-2,4.621878E-1,-2.5848284E-1,1.18460596E-1,-1.3108508E-1,5.998599E-1,-2.9327664E-1,-5.7932633E-1,-2.533862E-1,7.434265E-2,-2.843899E-1,9.454765E-2,-8.671857E-2,5.148673E-1,-2.3660435E-1,3.4572935E-1,5.0772077E-1,2.5439572E-1],"split_indices":[7,19,23,20,0,20,21,0,0,7,10,5,26,3,20,19,18,5,0,20,4,5,23,18,19,25,28,9,0,0,9,0,0,0,0,0,0,0,0,0,0,0,0,0,0,0,0,0,0,0,0,0,0,0,0,0,0],"split_type":[0,0,0,0,0,0,0,0,0,0,0,0,0,0,0,0,0,0,0,0,0,0,0,0,0,0,0,0,0,0,0,0,0,0,0,0,0,0,0,0,0,0,0,0,0,0,0,0,0,0,0,0,0,0,0,0,0],"sum_hessian":[4.3235565E2,3.1557727E2,1.1677836E2,2.4123322E2,7.434407E1,7.493887E1,4.183949E1,2.1857776E2,2.2655458E1,3.2934036E1,4.1410034E1,4.8333466E1,2.6605404E1,4.197335E0,3.7642155E1,1.7433363E1,2.011444E2,7.5513387E0,1.5104119E1,1.0546931E1,2.2387106E1,3.3730526E1,7.679507E0,2.3370657E1,2.496281E1,8.477516E0,1.8127886E1,3.0624893E0,1.1348451E0,1.0088483E0,3.663331E1,1.2421278E1,5.0120845E0,1.9630486E2,4.8395414E0,3.144527E0,4.4068117E0,4.716135E0,5.8307962E0,8.602977E0,1.3784128E1,3.0359053E1,3.371475E0,6.5287147E0,1.1507918E0,2.2303606E1,1.0670494E0,1.3592198E1,1.1370613E1,5.1519504E0,3.3255663E0,5.488502E0,1.2639384E1,1.023472E0,2.0390174E0,1.3563935E1,2.3069372E1],"tree_param":{"num_deleted":"0","num_feature":"29","num_nodes":"57","size_leaf_vector":"1"}},{"base_weights":[-4.4469807E-1,1.2227283E-1,-7.23931E-1,-2.5177762E-1,7.281867E-1,-9.170738E-1,-1.5695007E-1,-7.564041E-1,5.831212E-1,-6.825778E-1,9.509705E-1,-9.724976E-1,-2.4228093E-1,-3.7814945E-1,9.068013E-1,7.29031E-1,-8.7942374E-1,-7.0040977E-1,8.637662E-1,-2.8716204E-1,1.321254E-1,5.573196E-1,1.7321097E0,-9.855675E-1,3.2519143E-2,-4.5175502E-1,3.0882138E-1,-6.94473E-1,1.3034172E-1,-2.428647E-1,1.1832579E0,-4.375513E-1,-9.010254E-2,6.1035685E-2,-4.7732934E-1,-2.588511E-1,3.1453788E-1,6.756135E-1,1.050643E-1,1.6732356E-1,7.248772E-1,-3.0717596E-1,-2.2131449E-1,-2.1189146E-1,1.20494224E-1,-2.6418597E-1,-3.6031457E-3,2.6297253E-1,-5.248273E-2,-1.6898969E-1,4.4538733E-1],"categories":[],"categories_nodes":[],"categories_segments":[],"categories_sizes":[],"default_left":[0,0,0,0,0,0,0,0,0,0,0,0,0,0,0,0,0,0,0,0,0,0,0,0,0,0,0,0,0,0,0,0,0,0,0,0,0,0,0,0,0,0,0,0,0,0,0,0,0,0,0],"id":6,"left_children":[1,3,5,7,9,11,13,15,17,19,21,23,25,27,29,-1,31,33,35,-1,-1,37,39,41,-1,43,-1,45,47,-1,49,-1,-1,-1,-1,-1,-1,-1,-1,-1,-1,-1,-1,-1,-1,-1,-1,-1,-1,-1,-1],"loss_changes":[5.817663E1,2.781777E1,2.6792969E1,3.2516586E1,1.5357267E1,6.6186676E0,1.533362E1,2.0908981E1,1.1139639E1,2.5694335E0,1.15906105E1,2.494751E0,4.5253415E0,8.68737E0,6.301442E0,0E0,1.5269501E1,4.9925914E0,8.700254E0,0E0,0E0,9.25826E0,9.264126E0,8.3314514E-1,0E0,3.277506E0,0E0,4.1953707E0,5.014751E0,0E0,6.155326E0,0E0,0E0,0E0,0E0,0E0,0E0,0E0,0E0,0E0,0E0,0E0,0E0,0E0,0E0,0E0,0E0,0E0,0E0,0E0,0E0],"parents":[2147483647,0,0,1,1,2,2,3,3,4,4,5,5,6,6,7,7,8,8,9,9,10,10,11,11,12,12,13,13,14,14,16,16,17,17,18,18,21,21,22,22,23,23,25,25,27,27,28,28,30,30],"right_children":[2,4,6,8,10,12,14,16,18,20,22,24,26,28,30,-1,32,34,36,-1,-1,38,40,42,-1,44,-1,46,48,-1,50,-1,-1,-1,-1,-1,-1,-1,-1,-1,-1,-1,-1,-1,-1,-1,-1,-1,-1,-1,-1],"split_conditions":[5E0,8.8502365E-1,8.850637E-1,1.408E3,1E0,2.192E3,9.2533225E-1,1.4285715E-1,8.35313E-1,5.724377E-1,1E0,6.910782E-1,9.6153843E-1,9.478704E-1,3.3555904E-1,7.29031E-1,9.4373864E-1,8.2280767E-1,1E0,-2.8716204E-1,1.321254E-1,2.173913E-1,1E0,1.098E3,3.2519143E-2,8.588076E-1,3.0882138E-1,1E0,1.2E1,-2.428647E-1,9.429483E-1,-4.375513E-1,-9.010254E-2,6.1035685E-2,-4.7732934E-1,-2.588511E-1,3.1453788E-1,6.756135E-1,1.050643E-1,1.6732356E-1,7.248772E-1,-3.0717596E-1,-2.2131449E-1,-2.1189146E-1,1.20494224E-1,-2.6418597E-1,-3.6031457E-3,2.6297253E-1,-5.248273E-2,-1.6898969E-1,4.4538733E-1],"split_indices":[0,20,19,7,26,7,18,15,22,13,8,12,23,20,10,0,23,19,26,0,0,15,0,7,0,20,0,8,0,0,21,0,0,0,0,0,0,0,0,0,0,0,0,0,0,0,0,0,0,0,0],"split_type":[0,0,0,0,0,0,0,0,0,0,0,0,0,0,0,0,0,0,0,0,0,0,0,0,0,0,0,0,0,0,0,0,0,0,0,0,0,0,0,0,0,0,0,0,0,0,0,0,0,0,0],"sum_hessian":[3.6591025E2,1.2092968E2,2.4498058E2,7.513244E1,4.5797245E1,1.8227194E2,6.270863E1,4.6887115E1,2.8245323E1,5.9643707E0,3.9832874E1,1.6802972E2,1.4242228E1,5.244714E1,1.0261489E1,1.0457543E0,4.5841362E1,4.799424E0,2.3445898E1,4.9110117E0,1.0533588E0,2.7624916E1,1.2207957E1,1.6610936E2,1.9203604E0,1.2781583E1,1.4606442E0,3.2107727E1,2.0339415E1,1.1560401E0,9.105449E0,2.2161386E1,2.3679976E1,2.7650526E0,2.0343716E0,1.9108272E0,2.153507E1,1.9330456E0,2.569187E1,5.16216E0,7.045797E0,1.4113863E2,2.497073E1,9.977805E0,2.803778E0,2.4998766E1,7.108959E0,5.361784E0,1.4977631E1,1.2120298E0,7.893419E0],"tree_param":{"num_deleted":"0","num_feature":"29","num_nodes":"51","size_leaf_vector":"1"}},{"base_weights":[-3.878049E-1,-7.2008675E-1,4.3653753E-2,-8.309603E-1,1.0872964E0,-6.5976614E-1,2.383717E-1,-9.2495096E-1,1.6283725E-1,-9.810242E-2,1.729634E0,4.913336E-1,-8.147769E-1,-8.854127E-1,3.6273193E-1,-9.980236E-1,-8.399983E-2,-3.1894895E-1,4.4265002E-1,-6.2347704E-1,1.7333262E-1,2.0276177E0,1.0736681E-2,-9.6201813E-1,-1.571489E-2,-2.637809E-1,-2.0531545E0,-7.5917274E-1,4.9410692E-1,-6.808386E-1,-2.7123377E-1,-3.184235E-1,2.5476396E-1,-1.9714072E-1,2.7848044E-1,-2.355918E-1,-4.18488E-2,2.2635266E-1,8.533765E-1,-3.0081475E-1,-5.4035136E-3,3.7191805E-1,-2.0997275E-1,-2.5673237E-1,2.516977E-1,-8.759436E-1,-3.0051053E-2,-3.2387036E-1,-3.5340995E-2,-6.9986214E-3,2.3120683E-1],"categories":[],"categories_nodes":[],"categories_segments":[],"categories_sizes":[],"default_left":[0,1,0,0,0,0,0,0,0,0,0,0,0,0,0,0,0,0,0,0,0,0,0,1,0,0,0,0,0,0,0,0,0,0,0,0,0,0,0,0,0,0,0,0,0,0,0,0,0,0,0],"id":7,"left_children":[1,3,5,7,9,11,13,15,17,19,21,-1,23,25,27,29,31,-1,33,35,-1,37,-1,39,41,43,45,47,49,-1,-1,-1,-1,-1,-1,-1,-1,-1,-1,-1,-1,-1,-1,-1,-1,-1,-1,-1,-1,-1,-1],"loss_changes":[4.5167973E1,3.655625E1,1.9047745E1,1.5861748E1,8.329561E0,1.2078005E1,1.5519711E1,9.36824E0,5.747976E0,2.033603E0,3.4626312E0,0E0,3.3883438E0,7.535018E0,1.491159E1,1.4834839E1,1.3113819E1,0E0,7.6763906E0,1.3579428E-1,0E0,4.0300465E0,0E0,9.197426E-1,5.607146E0,6.207271E0,6.0002584E0,2.0783024E0,1.2739798E1,0E0,0E0,0E0,0E0,0E0,0E0,0E0,0E0,0E0,0E0,0E0,0E0,0E0,0E0,0E0,0E0,0E0,0E0,0E0,0E0,0E0,0E0],"parents":[2147483647,0,0,1,1,2,2,3,3,4,4,5,5,6,6,7,7,8,8,9,9,10,10,12,12,13,13,14,14,15,15,16,16,18,18,19,19,21,21,23,23,24,24,25,25,26,26,27,27,28,28],"right_children":[2,4,6,8,10,12,14,16,18,20,22,-1,24,26,28,30,32,-1,34,36,-1,38,-1,40,42,44,46,48,50,-1,-1,-1,-1,-1,-1,-1,-1,-1,-1,-1,-1,-1,-1,-1,-1,-1,-1,-1,-1,-1,-1],"split_conditions":[4E0,9.710108E-1,1E0,4.9389482E-1,2.83E2,1.3725491E-1,7.990437E-1,8.5714287E-1,8.850637E-1,6.435453E-1,4.6274966E-1,4.913336E-1,6.4705884E-1,1E0,1E0,1E0,8.5599065E-1,-3.1894895E-1,2.777778E-1,3.8005626E-1,1.7333262E-1,3.8438207E-1,1.0736681E-2,9.001758E-1,6.818182E-1,8.8235295E-1,2.546E3,4.038748E-1,3.426304E-1,-6.808386E-1,-2.7123377E-1,-3.184235E-1,2.5476396E-1,-1.9714072E-1,2.7848044E-1,-2.355918E-1,-4.18488E-2,2.2635266E-1,8.533765E-1,-3.0081475E-1,-5.4035136E-3,3.7191805E-1,-2.0997275E-1,-2.5673237E-1,2.516977E-1,-8.759436E-1,-3.0051053E-2,-3.2387036E-1,-3.5340995E-2,-6.9986214E-3,2.3120683E-1],"split_indices":[5,21,26,10,7,23,21,15,19,13,10,0,14,3,28,0,19,0,14,11,0,10,0,22,15,23,7,11,10,0,0,0,0,0,0,0,0,0,0,0,0,0,0,0,0,0,0,0,0,0,0],"split_type":[0,0,0,0,0,0,0,0,0,0,0,0,0,0,0,0,0,0,0,0,0,0,0,0,0,0,0,0,0,0,0,0,0,0,0,0,0,0,0,0,0,0,0,0,0,0,0,0,0,0,0],"sum_hessian":[3.1383453E2,1.7691609E2,1.3691843E2,1.6719952E2,9.716572E0,2.9166376E1,1.0775205E2,1.5281589E2,1.4383641E1,3.7125456E0,6.004026E0,1.2388442E0,2.7927532E1,1.0126245E1,9.762581E1,1.4042699E2,1.2388891E1,2.1525753E0,1.2231066E1,2.1324644E0,1.5800813E0,4.938235E0,1.0657912E0,2.340991E1,4.517622E0,7.4083805E0,2.7178636E0,9.732697E0,8.789311E1,8.065412E0,1.3236159E2,5.9840508E0,6.404841E0,3.6382582E0,8.592807E0,1.1315207E0,1.0009437E0,2.682134E0,2.256101E0,2.2382761E1,1.0271484E0,1.3071518E0,3.2104702E0,4.9663243E0,2.442056E0,1.5395988E0,1.1782647E0,6.0347996E0,3.697897E0,3.0934998E1,5.695811E1],"tree_param":{"num_deleted":"0","num_feature":"29","num_nodes":"51","size_leaf_vector":"1"}},{"base_weights":[-3.350591E-1,9.116071E-2,-6.308319E-1,-5.402278E-1,3.0055076E-1,-7.800542E-1,3.0526215E-1,-1.0681142E0,5.518463E-1,-1.0252116E0,4.3154013E-1,-8.834613E-1,1.6688354E-2,-3.8626084E-1,9.6747386E-1,3.032097E-1,-1.307672E0,9.10734E-1,-3.3522654E-1,1.6350737E-1,-1.4354914E0,-6.33306E-1,5.76474E-1,-9.841706E-1,-5.483506E-1,-3.0245626E-1,9.831366E-1,-8.569177E-1,3.4781042E-1,-4.973286E-1,1.4145201E0,-1.10015616E-1,-5.7920605E-1,6.941036E-1,4.3154318E-2,-5.957508E-1,7.021486E-2,-3.1949675E-1,6.345455E-3,-3.3425525E-2,2.532066E-1,-2.9833308E-1,-3.8327806E-2,-2.0517682E-1,1.3653266E-1,-3.0355138E-1,2.5539996E-2,5.31997E-1,2.0665212E-2,5.840661E-2,-3.154091E-1,2.7430892E-1,-9.064701E-2,-6.2699444E-3,-2.0878935E-1,-3.6004733E-2,4.905877E-1],"categories":[],"categories_nodes":[],"categories_segments":[],"categories_sizes":[],"default_left":[0,0,0,0,0,0,0,0,0,0,0,0,0,0,0,0,0,0,0,0,0,0,0,0,1,0,0,0,0,0,0,0,0,0,0,0,0,0,0,0,0,0,0,0,0,0,0,0,0,0,0,0,0,0,0,0,0],"id":8,"left_children":[1,3,5,7,9,11,13,15,17,19,21,23,25,27,29,-1,31,33,-1,-1,35,37,39,41,43,45,47,49,51,53,55,-1,-1,-1,-1,-1,-1,-1,-1,-1,-1,-1,-1,-1,-1,-1,-1,-1,-1,-1,-1,-1,-1,-1,-1,-1,-1],"loss_changes":[3.494223E1,1.5265118E1,2.3074806E1,1.7196514E1,1.5451733E1,1.165538E1,1.099628E1,1.1162369E1,7.0363665E0,5.9799623E0,1.2613064E1,3.6815033E0,5.6062946E0,4.465379E0,8.649779E0,0E0,9.934767E0,9.15634E0,0E0,0E0,6.5948915E0,2.8432212E0,1.30465145E1,7.080231E-1,4.5504255E0,3.8540993E0,3.1347027E0,1.7665782E0,2.2734618E0,3.2399976E-1,3.4341698E0,0E0,0E0,0E0,0E0,0E0,0E0,0E0,0E0,0E0,0E0,0E0,0E0,0E0,0E0,0E0,0E0,0E0,0E0,0E0,0E0,0E0,0E0,0E0,0E0,0E0,0E0],"parents":[2147483647,0,0,1,1,2,2,3,3,4,4,5,5,6,6,7,7,8,8,9,9,10,10,11,11,12,12,13,13,14,14,16,16,17,17,20,20,21,21,22,22,23,23,24,24,25,25,26,26,27,27,28,28,29,29,30,30],"right_children":[2,4,6,8,10,12,14,16,18,20,22,24,26,28,30,-1,32,34,-1,-1,36,38,40,42,44,46,48,50,52,54,56,-1,-1,-1,-1,-1,-1,-1,-1,-1,-1,-1,-1,-1,-1,-1,-1,-1,-1,-1,-1,-1,-1,-1,-1,-1,-1],"split_conditions":[6E0,3.58E2,1.949E3,9.890728E-1,7.792258E-1,4.800462E-1,8.207368E-1,3.7E1,3E0,6.480235E-1,1E0,8.9118505E-1,1.231E3,5.785124E-1,4.1666666E-1,3.032097E-1,1.92E2,5.833333E-1,-3.3522654E-1,1.6350737E-1,4.796624E-1,4E0,7.25978E-1,4.6601617E-1,8.942576E-1,2.00001E0,2.00001E0,5.182882E-1,5.882353E-1,3E0,9.052759E-1,-1.10015616E-1,-5.7920605E-1,6.941036E-1,4.3154318E-2,-5.957508E-1,7.021486E-2,-3.1949675E-1,6.345455E-3,-3.3425525E-2,2.532066E-1,-2.9833308E-1,-3.8327806E-2,-2.0517682E-1,1.3653266E-1,-3.0355138E-1,2.5539996E-2,5.31997E-1,2.0665212E-2,5.840661E-2,-3.154091E-1,2.7430892E-1,-9.064701E-2,-6.2699444E-3,-2.0878935E-1,-3.6004733E-2,4.905877E-1],"split_indices":[0,7,7,19,21,11,20,6,4,22,26,19,7,24,23,0,7,15,0,0,12,0,20,11,21,26,27,20,15,4,21,0,0,0,0,0,0,0,0,0,0,0,0,0,0,0,0,0,0,0,0,0,0,0,0,0,0],"split_type":[0,0,0,0,0,0,0,0,0,0,0,0,0,0,0,0,0,0,0,0,0,0,0,0,0,0,0,0,0,0,0,0,0,0,0,0,0,0,0,0,0,0,0,0,0,0,0,0,0,0,0,0,0,0,0,0,0],"sum_hessian":[2.7572183E2,1.1323609E2,1.6248573E2,2.7807175E1,8.542892E1,1.4028902E2,2.2196722E1,1.8760614E1,9.04656E0,7.067819E0,7.83611E1,1.2407661E2,1.6212406E1,1.1061901E1,1.113482E1,1.6059167E0,1.7154697E1,7.819749E0,1.2268118E0,1.396121E0,5.671698E0,8.984117E0,6.937698E1,9.3915695E1,3.0160917E1,1.2704212E1,3.508195E0,6.6383257E0,4.423576E0,2.5773468E0,8.557473E0,7.4664965E0,9.688201E0,2.0508814E0,5.7688675E0,4.1231127E0,1.5485858E0,5.035436E0,3.9486809E0,1.9590755E1,4.978623E1,9.264323E1,1.2724625E0,2.6851578E1,3.3093393E0,3.9196763E0,8.784535E0,1.3777583E0,2.1304367E0,1.035713E0,5.6026125E0,2.146108E0,2.2774677E0,1.0835838E0,1.493763E0,1.1337086E0,7.423764E0],"tree_param":{"num_deleted":"0","num_feature":"29","num_nodes":"57","size_leaf_vector":"1"}},{"base_weights":[-2.90809E-1,-5.247498E-1,1.6120166E-1,-8.356658E-1,-9.377353E-2,-6.121285E-1,3.8538513E-1,-1.0278654E0,-2.8231627E-1,-2.0070243E-1,1.6738423E0,2.0501705E-1,-9.657784E-1,-1.206888E-1,6.934002E-1,-2.5843883E0,-9.312705E-1,-3.2430625E-1,1.3076927E-1,-3.9489678E-1,8.3193856E-1,5.988967E-1,1.388095E-1,2.7395374E-1,-2.9897198E-1,-1.7467022E0,-7.851661E-2,-5.797167E-1,6.7255723E-1,1.1436554E0,2.8181002E-1,-1.5946972E-1,-1.0306948E0,-2.88936E-1,1.2586552E-1,-2.4120925E-1,1.94136E-1,-1.6404653E-1,1.6928041E-1,-1.3474548E-1,4.2298493E-1,-2.6765415E-1,1.5278006E-1,-1.1824587E-1,-6.885141E-1,-3.596018E-1,1.936243E-1,1.6727246E-1,-3.4814832E-1,-2.6748952E-1,3.0268452E-1,4.0849438E-1,-3.0654767E-1,3.0574858E-1,-5.1320802E-2],"categories":[],"categories_nodes":[],"categories_segments":[],"categories_sizes":[],"default_left":[0,0,0,0,0,0,0,0,0,0,0,0,0,0,0,0,0,0,0,0,0,0,0,0,0,0,0,0,0,0,0,0,0,0,0,0,0,0,0,0,0,0,0,0,0,0,0,0,0,0,0,0,0,0,0],"id":9,"left_children":[1,3,5,7,9,11,13,15,17,19,21,23,25,27,29,31,33,-1,35,37,39,-1,-1,-1,41,43,45,47,49,51,53,-1,-1,-1,-1,-1,-1,-1,-1,-1,-1,-1,-1,-1,-1,-1,-1,-1,-1,-1,-1,-1,-1,-1,-1],"loss_changes":[2.5846535E1,2.1464882E1,1.477326E1,9.629341E0,1.3283868E1,5.7556105E0,1.0312594E1,7.9444046E0,8.529303E0,1.346133E1,6.4433384E-1,2.6407197E0,9.28442E0,9.740493E0,7.264963E0,4.219118E0,3.2602272E0,0E0,9.039089E0,8.439981E0,8.547674E0,0E0,0E0,0E0,2.673775E0,4.424343E0,6.784539E0,1.1746218E1,6.0961685E0,1.0466808E1,7.7599277E0,0E0,0E0,0E0,0E0,0E0,0E0,0E0,0E0,0E0,0E0,0E0,0E0,0E0,0E0,0E0,0E0,0E0,0E0,0E0,0E0,0E0,0E0,0E0,0E0],"parents":[2147483647,0,0,1,1,2,2,3,3,4,4,5,5,6,6,7,7,8,8,9,9,10,10,11,11,12,12,13,13,14,14,15,15,16,16,18,18,19,19,20,20,24,24,25,25,26,26,27,27,28,28,29,29,30,30],"right_children":[2,4,6,8,10,12,14,16,18,20,22,24,26,28,30,32,34,-1,36,38,40,-1,-1,-1,42,44,46,48,50,52,54,-1,-1,-1,-1,-1,-1,-1,-1,-1,-1,-1,-1,-1,-1,-1,-1,-1,-1,-1,-1,-1,-1,-1,-1],"split_conditions":[8.333333E-1,8.516092E-1,2.96E2,8E0,6.910782E-1,3.1247818E-1,7.5465107E-1,1E0,7.3877573E-1,1E0,4.4388276E-1,8.181818E-1,8.946451E-1,1.669E3,8.9713824E-1,9.725914E-1,9.8770183E-1,-3.2430625E-1,2.00001E0,8.846462E-1,2.00001E0,5.988967E-1,1.388095E-1,2.7395374E-1,1E0,9.173542E-1,7.2727275E-1,9.347786E-1,9.295039E-1,2.1E1,6.12E2,-1.5946972E-1,-1.0306948E0,-2.88936E-1,1.2586552E-1,-2.4120925E-1,1.94136E-1,-1.6404653E-1,1.6928041E-1,-1.3474548E-1,4.2298493E-1,-2.6765415E-1,1.5278006E-1,-1.1824587E-1,-6.885141E-1,-3.596018E-1,1.936243E-1,1.6727246E-1,-3.4814832E-1,-2.6748952E-1,3.0268452E-1,4.0849438E-1,-3.0654767E-1,3.0574858E-1,-5.1320802E-2],"split_indices":[23,20,7,5,12,11,20,0,19,3,10,15,20,7,19,18,18,0,28,9,26,0,0,0,9,18,14,9,18,0,7,0,0,0,0,0,0,0,0,0,0,0,0,0,0,0,0,0,0,0,0,0,0,0,0],"split_type":[0,0,0,0,0,0,0,0,0,0,0,0,0,0,0,0,0,0,0,0,0,0,0,0,0,0,0,0,0,0,0,0,0,0,0,0,0,0,0,0,0,0,0,0,0,0,0,0,0,0,0,0,0,0,0],"sum_hessian":[2.426262E2,1.5977354E2,8.285267E1,9.226935E1,6.750419E1,1.8231583E1,6.4621086E1,6.7846214E1,2.442313E1,6.448946E1,3.0147243E0,5.633974E0,1.25976095E1,2.467985E1,3.9941235E1,2.4594765E0,6.538674E1,7.7743716E0,1.664876E1,5.480133E1,9.688133E0,1.8688331E0,1.1458913E0,2.004924E0,3.6290498E0,6.1851254E0,6.412484E0,1.5803828E1,8.876021E0,1.8225256E1,2.1715979E1,1.1971016E0,1.262375E0,6.416098E1,1.2257637E0,5.725744E0,1.0923015E1,4.7679184E1,7.122149E0,3.0814393E0,6.606694E0,2.033039E0,1.5960107E0,2.2800214E0,3.905104E0,2.2599008E0,4.152583E0,5.3558455E0,1.0447983E1,1.2788591E0,7.597162E0,1.6895628E1,1.3296281E0,7.7870874E0,1.3928891E1],"tree_param":{"num_deleted":"0","num_feature":"29","num_nodes":"55","size_leaf_vector":"1"}},{"base_weights":[-2.4616198E-1,-4.1338748E-1,2.8621614E-1,-6.5822995E-1,-2.1813957E-2,-1.7190477E-1,8.3282775E-1,-8.586276E-1,1.4473001E-2,-3.2448596E-1,5.0964725E-1,-9.7579885E-1,1.0750091E-1,-2.603969E-1,9.668398E-1,-9.7176135E-1,-2.4748094E-1,-5.3478736E-1,4.2397895E-1,-6.979076E-1,7.7213615E-1,-3.9714712E-1,8.783269E-1,-3.2374522E-1,-4.986243E-2,-3.4491235E-1,8.576506E-1,-1.4461932E-1,1.1253494E0,-3.079347E-1,2.1606243E-1,1.4147191E-1,-2.1111186E-1,-2.2622655E-1,1.9219103E-1,2.5089523E-1,-2.1002346E-1,-1.20862044E-1,-4.336703E-1,-2.6677555E-1,3.5281467E-1,-2.930429E-1,1.4291467E-1,3.5429278E-1,-1.9347174E-1,1.5186603E-1,-1.6785727E-1,-1.7430496E-1,3.4662086E-1,6.030203E-1,2.4060707E-1],"categories":[],"categories_nodes":[],"categories_segments":[],"categories_sizes":[],"default_left":[0,0,0,0,0,0,0,0,0,0,0,0,0,0,0,0,0,0,0,0,0,0,0,0,0,0,0,0,0,0,0,0,0,0,0,0,0,0,0,0,0,0,0,0,0,0,0,0,0,0,0],"id":10,"left_children":[1,3,5,7,9,11,13,15,17,19,21,23,25,-1,27,29,31,33,35,37,39,41,43,-1,-1,45,47,-1,49,-1,-1,-1,-1,-1,-1,-1,-1,-1,-1,-1,-1,-1,-1,-1,-1,-1,-1,-1,-1,-1,-1],"loss_changes":[1.9716145E1,1.6085163E1,1.3467471E1,1.3936199E1,1.0723821E1,6.793097E0,6.4081E0,5.262867E0,5.7801523E0,1.7914806E1,8.441408E0,4.7154665E-1,8.100602E0,0E0,5.8525887E0,6.9222145E0,4.8506436E0,3.3154309E0,7.39987E0,6.5157166E0,8.5974045E0,4.356928E0,8.838791E0,0E0,0E0,3.0339231E0,4.5003004E0,0E0,4.4352875E0,0E0,0E0,0E0,0E0,0E0,0E0,0E0,0E0,0E0,0E0,0E0,0E0,0E0,0E0,0E0,0E0,0E0,0E0,0E0,0E0,0E0,0E0],"parents":[2147483647,0,0,1,1,2,2,3,3,4,4,5,5,6,6,7,7,8,8,9,9,10,10,11,11,12,12,14,14,15,15,16,16,17,17,18,18,19,19,20,20,21,21,22,22,25,25,26,26,28,28],"right_children":[2,4,6,8,10,12,14,16,18,20,22,24,26,-1,28,30,32,34,36,38,40,42,44,-1,-1,46,48,-1,50,-1,-1,-1,-1,-1,-1,-1,-1,-1,-1,-1,-1,-1,-1,-1,-1,-1,-1,-1,-1,-1,-1],"split_conditions":[1E0,9.14E2,7.944794E-1,9.64682E-1,8.5227275E-1,7.931998E-1,3.529412E-1,9.1952497E-1,2.93E2,9.5710665E-1,1E0,4.3268263E-1,9E0,-2.603969E-1,8.286318E-1,5.1856905E-1,2E0,1E0,6.26E2,7.125E-1,9.1555935E-1,1.88E3,9.5274997E-1,-3.2374522E-1,-4.986243E-2,1.9354838E-1,1E0,-1.4461932E-1,5.1428574E-1,-3.079347E-1,2.1606243E-1,1.4147191E-1,-2.1111186E-1,-2.2622655E-1,1.9219103E-1,2.5089523E-1,-2.1002346E-1,-1.20862044E-1,-4.336703E-1,-2.6677555E-1,3.5281467E-1,-2.930429E-1,1.4291467E-1,3.5429278E-1,-1.9347174E-1,1.5186603E-1,-1.6785727E-1,-1.7430496E-1,3.4662086E-1,6.030203E-1,2.4060707E-1],"split_indices":[8,7,9,19,23,19,15,20,7,20,25,11,5,0,21,10,0,9,7,23,21,7,20,0,0,14,28,0,15,0,0,0,0,0,0,0,0,0,0,0,0,0,0,0,0,0,0,0,0,0,0],"split_type":[0,0,0,0,0,0,0,0,0,0,0,0,0,0,0,0,0,0,0,0,0,0,0,0,0,0,0,0,0,0,0,0,0,0,0,0,0,0,0,0,0,0,0,0,0,0,0,0,0,0,0],"sum_hessian":[2.1913307E2,1.6692403E2,5.2209057E1,1.0228588E2,6.463814E1,2.8776596E1,2.343246E1,7.8595856E1,2.3690027E1,4.1431797E1,2.3206343E1,6.7792425E0,2.1997355E1,1.3114324E0,2.2121027E1,6.582117E1,1.2774691E1,9.987757E0,1.370227E1,3.1178486E1,1.0253312E1,6.6855454E0,1.6520798E1,5.7165174E0,1.0627251E0,1.4058762E1,7.938593E0,1.9801012E0,2.0140926E1,6.4141335E1,1.6798284E0,4.9458785E0,7.828812E0,8.719414E0,1.2683433E0,1.02121315E1,3.490138E0,2.345984E1,7.7186456E0,1.770253E0,8.483059E0,3.9476824E0,2.737863E0,1.396984E1,2.5509572E0,2.5574322E0,1.1501329E1,1.1981378E0,6.740455E0,3.9943426E0,1.6146584E1],"tree_param":{"num_deleted":"0","num_feature":"29","num_nodes":"51","size_leaf_vector":"1"}},{"base_weights":[-2.0729828E-1,-7.2400767E-1,-5.4263856E-2,-9.4529176E-1,-9.834226E-2,-1.6140383E-1,7.755896E-1,-9.7377515E-1,-1.75261E-2,4.373001E-1,-3.9569968E-1,-4.6931618E-1,7.1832314E-2,9.399543E-1,-3.3363473E-1,-3.0148876E-1,-3.407216E-2,-7.658809E-1,5.2544963E-1,-6.6826564E-1,5.441555E-1,-5.7850397E-1,2.1140748E-1,-1.6524945E-1,1.213501E0,1.2564597E-1,-2.769662E-1,-3.347588E-1,-3.254742E-2,3.8495737E-1,-1.17670015E-1,-2.727952E-1,2.8217783E-2,2.4296956E-1,-2.0838009E-1,-2.3684148E-1,2.458804E-1,3.0931082E-1,2.1131994E-2,-1.7193124E-1,1.3039652E-1,4.1516238E-1,-5.8958746E-2],"categories":[],"categories_nodes":[],"categories_segments":[],"categories_sizes":[],"default_left":[0,0,1,1,0,0,0,0,0,0,0,0,0,0,0,0,0,0,0,0,0,0,0,0,0,0,0,0,0,0,0,0,0,0,0,0,0,0,0,0,0,0,0],"id":11,"left_children":[1,3,5,7,9,11,13,15,-1,-1,17,19,21,23,25,-1,-1,27,29,31,33,35,37,39,41,-1,-1,-1,-1,-1,-1,-1,-1,-1,-1,-1,-1,-1,-1,-1,-1,-1,-1],"loss_changes":[1.5868879E1,6.2602177E0,1.40211735E1,7.9649925E-1,6.6405244E0,1.0034028E1,3.603222E0,7.622471E-1,0E0,0E0,4.4224577E0,1.2491496E1,7.3929863E0,5.030691E0,1.74714E0,0E0,0E0,1.9073973E0,3.2657676E0,9.407278E0,3.993125E0,4.90059E0,7.631464E0,1.2400213E0,3.3773918E0,0E0,0E0,0E0,0E0,0E0,0E0,0E0,0E0,0E0,0E0,0E0,0E0,0E0,0E0,0E0,0E0,0E0,0E0],"parents":[2147483647,0,0,1,1,2,2,3,3,4,4,5,5,6,6,7,7,10,10,11,11,12,12,13,13,14,14,17,17,18,18,19,19,20,20,21,21,22,22,23,23,24,24],"right_children":[2,4,6,8,10,12,14,16,-1,-1,18,20,22,24,26,-1,-1,28,30,32,34,36,38,40,42,-1,-1,-1,-1,-1,-1,-1,-1,-1,-1,-1,-1,-1,-1,-1,-1,-1,-1],"split_conditions":[1E0,9E0,9.2353046E-1,9.999998E-1,1.3725491E-1,4E0,5.008782E-1,5.58744E-1,-1.75261E-2,4.373001E-1,5.833333E-1,4.9389482E-1,6.628878E-1,2.83E2,9.02E2,-3.0148876E-1,-3.407216E-2,9.075392E-1,6.818182E-1,1E0,3.9486194E-1,1E0,6.527871E-1,6.332048E-1,7.588869E-1,1.2564597E-1,-2.769662E-1,-3.347588E-1,-3.254742E-2,3.8495737E-1,-1.17670015E-1,-2.727952E-1,2.8217783E-2,2.4296956E-1,-2.0838009E-1,-2.3684148E-1,2.458804E-1,3.0931082E-1,2.1131994E-2,-1.7193124E-1,1.3039652E-1,4.1516238E-1,-5.8958746E-2],"split_indices":[26,5,21,22,23,5,10,10,0,0,14,10,18,7,7,0,0,19,15,3,12,3,9,13,13,0,0,0,0,0,0,0,0,0,0,0,0,0,0,0,0,0,0],"split_type":[0,0,0,0,0,0,0,0,0,0,0,0,0,0,0,0,0,0,0,0,0,0,0,0,0,0,0,0,0,0,0,0,0,0,0,0,0,0,0,0,0,0,0],"sum_hessian":[2.0017992E2,4.4887978E1,1.5529193E2,3.2782627E1,1.21053505E1,1.3824857E2,1.7043371E1,3.1667578E1,1.1150483E0,1.3161488E0,1.0789202E1,5.9149166E1,7.9099396E1,1.4976724E1,2.0666466E0,3.0397217E1,1.270362E0,7.816538E0,2.9726639E0,4.9727943E1,9.421222E0,1.3420977E1,6.567842E1,3.0499585E0,1.1926765E1,1.0351639E0,1.0314827E0,4.6457915E0,3.1707466E0,1.4100635E0,1.5626005E0,3.7634785E1,1.2093161E1,8.04218E0,1.3790416E0,1.2039586E1,1.3813905E0,8.711731E0,5.696669E1,1.8421903E0,1.2077682E0,1.0657565E1,1.2692003E0],"tree_param":{"num_deleted":"0","num_feature":"29","num_nodes":"43","size_leaf_vector":"1"}},{"base_weights":[-1.7150229E-1,-8.2894015E-1,-6.481793E-2,-9.9836683E-1,4.937887E-1,1.3737935E0,-1.00067236E-1,-1.1669195E0,5.6447763E-2,-1.7352954E-1,3.901569E-1,-7.255365E-2,7.894841E-1,-5.640112E-1,-5.8863014E-3,-2.0159423E0,-7.900146E-1,-5.101913E-1,2.6005965E-1,-7.809631E-1,-1.3351358E-1,-5.565308E-2,9.006046E-1,-2.8822398E-1,-1.0117643E0,1.5791026E-1,-2.8124133E-1,-1.8582922E-1,-4.548574E-2,7.457485E-2,-2.8243196E-1,-2.1560447E-1,2.0914783E-1,-9.224981E-2,3.72987E-2,3.2916367E-1,-2.7606264E-2],"categories":[],"categories_nodes":[],"categories_segments":[],"categories_sizes":[],"default_left":[0,0,0,0,0,0,0,0,0,0,0,0,0,0,1,0,0,0,0,0,0,0,0,0,0,0,0,0,0,0,0,0,0,0,0,0,0],"id":12,"left_children":[1,3,5,7,9,11,13,15,17,-1,-1,-1,-1,19,21,23,25,27,-1,29,31,33,35,-1,-1,-1,-1,-1,-1,-1,-1,-1,-1,-1,-1,-1,-1],"loss_changes":[1.2939656E1,6.270359E0,8.275115E0,4.187704E0,3.862994E0,8.573823E0,6.881568E0,4.818739E0,2.3471003E0,0E0,0E0,0E0,0E0,2.3780737E0,6.0045943E0,4.6550045E0,3.5060425E0,2.6361644E-2,0E0,3.1197376E0,5.4164376E0,5.752365E0,1.452898E0,0E0,0E0,0E0,0E0,0E0,0E0,0E0,0E0,0E0,0E0,0E0,0E0,0E0,0E0],"parents":[2147483647,0,0,1,1,2,2,3,3,4,4,5,5,6,6,7,7,8,8,13,13,14,14,15,15,16,16,17,17,19,19,20,20,21,21,22,22],"right_children":[2,4,6,8,10,12,14,16,18,-1,-1,-1,-1,20,22,24,26,28,-1,30,32,34,36,-1,-1,-1,-1,-1,-1,-1,-1,-1,-1,-1,-1,-1,-1],"split_conditions":[6.690806E-1,9.059702E-1,6.834516E-1,1E0,2.00001E0,8.3838755E-1,9.1555935E-1,2.00001E0,1E0,-1.7352954E-1,3.901569E-1,-7.255365E-2,7.894841E-1,5.4852355E-1,9.941339E-1,8.9476645E-1,2E0,5.729521E-1,2.6005965E-1,5.839983E-1,1.1E1,4E0,7.6227415E-1,-2.8822398E-1,-1.0117643E0,1.5791026E-1,-2.8124133E-1,-1.8582922E-1,-4.548574E-2,7.457485E-2,-2.8243196E-1,-2.1560447E-1,2.0914783E-1,-9.224981E-2,3.72987E-2,3.2916367E-1,-2.7606264E-2],"split_indices":[19,20,19,1,25,18,21,28,2,0,0,0,0,13,22,18,0,20,0,22,5,5,13,0,0,0,0,0,0,0,0,0,0,0,0,0,0],"split_type":[0,0,0,0,0,0,0,0,0,0,0,0,0,0,0,0,0,0,0,0,0,0,0,0,0,0,0,0,0,0,0,0,0,0,0,0,0],"sum_hessian":[1.8425368E2,2.4779715E1,1.5947395E2,2.2183481E1,2.5962324E0,2.9058394E0,1.5656812E2,1.9035458E1,3.148025E0,1.2362044E0,1.360028E0,1.6255661E0,1.2802733E0,2.5578325E1,1.3098979E2,4.515372E0,1.4520085E1,2.0706785E0,1.0773466E0,1.646606E1,9.112265E0,1.25062416E2,5.9273796E0,3.5006738E0,1.0146978E0,1.2037996E0,1.3316285E1,1.0295366E0,1.0411419E0,2.146441E0,1.4319619E1,5.4252586E0,3.6870058E0,5.1829567E1,7.323285E1,4.859503E0,1.0678768E0],"tree_param":{"num_deleted":"0","num_feature":"29","num_nodes":"37","size_leaf_vector":"1"}},{"base_weights":[-1.3444252E-1,-6.251295E-1,-1.7310759E-2,-8.974195E-1,-6.417559E-2,-1.794992E-1,4.1263774E-1,-9.3901235E-1,-1.8597458E-2,5.541477E-1,-8.6146516E-1,-3.0494818E-1,3.795355E-1,5.4011583E-1,-5.194674E-1,-2.942136E-1,-1.6734827E-2,-4.1577828E-1,1.433196E0,-1.3160072E-2,-3.11148E-1,-6.6113406E-1,-9.2111625E-2,9.177063E-1,-1.1180909E0,1.04974374E-1,9.6103597E-1,-8.2787424E-1,1.1415728E-1,-2.288614E-1,9.172164E-2,1.4231035E-1,6.284299E-1,-2.5442937E-1,3.0871615E-2,-1.413001E-1,1.2751621E-1,-1.09709956E-1,3.5443532E-1,6.94227E-2,-4.628315E-1,2.0230837E-1,-1.342679E-1,4.5189135E-2,4.510429E-1,-6.5043606E-2,-2.9816672E-1],"categories":[],"categories_nodes":[],"categories_segments":[],"categories_sizes":[],"default_left":[0,0,0,0,0,0,0,1,0,0,0,0,0,0,0,0,0,0,0,0,0,1,0,0,0,0,0,0,0,0,0,0,0,0,0,0,0,0,0,0,0,0,0,0,0,0,0],"id":13,"left_children":[1,3,5,7,9,11,13,15,-1,17,19,21,23,25,27,-1,-1,29,31,-1,-1,33,35,37,39,41,43,45,-1,-1,-1,-1,-1,-1,-1,-1,-1,-1,-1,-1,-1,-1,-1,-1,-1,-1,-1],"loss_changes":[1.0223337E1,5.1792736E0,1.016975E1,7.411518E-1,6.5316978E0,7.536854E0,5.0285106E0,7.4977684E-1,0E0,7.012089E0,7.812891E-1,6.532954E0,1.7016304E1,6.4271107E0,1.7908556E0,0E0,0E0,1.3233433E0,1.6530485E0,0E0,0E0,4.7115116E0,1.1096405E1,5.558197E0,3.6211033E0,6.16829E0,7.6835938E0,2.1818781E-1,0E0,0E0,0E0,0E0,0E0,0E0,0E0,0E0,0E0,0E0,0E0,0E0,0E0,0E0,0E0,0E0,0E0,0E0,0E0],"parents":[2147483647,0,0,1,1,2,2,3,3,4,4,5,5,6,6,7,7,9,9,10,10,11,11,12,12,13,13,14,14,17,17,18,18,21,21,22,22,23,23,24,24,25,25,26,26,27,27],"right_children":[2,4,6,8,10,12,14,16,-1,18,20,22,24,26,28,-1,-1,30,32,-1,-1,34,36,38,40,42,44,46,-1,-1,-1,-1,-1,-1,-1,-1,-1,-1,-1,-1,-1,-1,-1,-1,-1,-1,-1],"split_conditions":[1E0,9E0,1E0,5.58744E-1,3E0,4.7500828E-1,5.4017156E-1,9.999998E-1,-1.8597458E-2,2.00001E0,7.274817E-1,2E0,1.6E1,8.588076E-1,3E0,-2.942136E-1,-1.6734827E-2,9.075392E-1,1.949E3,-1.3160072E-2,-3.11148E-1,7.350455E-1,8.796185E-1,1E0,4.894519E-1,3.4606504E-1,4.0327856E-1,5.23E2,1.1415728E-1,-2.288614E-1,9.172164E-2,1.4231035E-1,6.284299E-1,-2.5442937E-1,3.0871615E-2,-1.413001E-1,1.2751621E-1,-1.09709956E-1,3.5443532E-1,6.94227E-2,-4.628315E-1,2.0230837E-1,-1.342679E-1,4.5189135E-2,4.510429E-1,-6.5043606E-2,-2.9816672E-1],"split_indices":[26,5,8,10,4,11,11,22,0,25,22,4,5,20,4,0,0,19,7,0,0,21,9,5,11,11,10,7,0,0,0,0,0,0,0,0,0,0,0,0,0,0,0,0,0,0,0],"split_type":[0,0,0,0,0,0,0,0,0,0,0,0,0,0,0,0,0,0,0,0,0,0,0,0,0,0,0,0,0,0,0,0,0,0,0,0,0,0,0,0,0,0,0,0,0,0,0],"sum_hessian":[1.7706264E2,3.328568E1,1.4377695E2,2.2004684E1,1.1280996E1,1.04818886E2,3.8958065E1,2.0842999E1,1.161686E0,6.525345E0,4.7556515E0,8.597938E1,1.8839512E1,3.464098E1,4.3170853E0,1.9797916E1,1.045081E0,3.352866E0,3.1724792E0,1.0622289E0,3.6934223E0,3.13718E1,5.4607574E1,1.4144075E1,4.695436E0,1.764707E1,1.6993908E1,3.274961E0,1.042124E0,2.2251294E0,1.1277366E0,1.996272E0,1.1762071E0,2.5115828E1,6.255972E0,3.1568764E1,2.3038813E1,2.3452597E0,1.1798816E1,1.2328694E0,3.4625664E0,8.582406E0,9.064665E0,7.326224E0,9.667685E0,1.1923127E0,2.0826483E0],"tree_param":{"num_deleted":"0","num_feature":"29","num_nodes":"47","size_leaf_vector":"1"}},{"base_weights":[-1.1148518E-1,-7.907611E-1,-3.448115E-2,-9.5901084E-1,2.0699121E-1,2.6761703E-2,-8.2341135E-1,-1.2473042E0,-4.0232606E-2,-4.5836893E-1,1.0877175E-1,-2.9517806E-1,1.0177886E-1,-2.8618836E-1,-6.569376E-1,-2.0291407E-1,1.9429986E-1,-7.253265E-1,4.9902305E-1,1.0712628E0,6.43788E-2,8.738969E-2,-2.4635573E-1,3.1106102E-1,-7.597613E-2,-2.5615025E-1,5.650282E-1,1.2617257E-1,-1.0878658E-2],"categories":[],"categories_nodes":[],"categories_segments":[],"categories_sizes":[],"default_left":[0,0,0,0,0,0,0,0,0,0,0,0,0,0,0,0,0,0,0,0,0,0,0,0,0,0,0,0,0],"id":14,"left_children":[1,3,5,7,-1,9,11,13,15,17,19,-1,-1,-1,-1,-1,-1,21,23,25,27,-1,-1,-1,-1,-1,-1,-1,-1],"loss_changes":[8.829252E0,4.945348E0,7.420417E0,4.1503353E0,0E0,5.74166E0,2.398254E0,1.2390423E0,2.5477138E0,5.6982527E0,5.194375E0,0E0,0E0,0E0,0E0,0E0,0E0,1.8699932E0,2.3442545E0,9.999617E0,4.2745576E0,0E0,0E0,0E0,0E0,0E0,0E0,0E0,0E0],"parents":[2147483647,0,0,1,1,2,2,3,3,5,5,6,6,7,7,8,8,9,9,10,10,17,17,18,18,19,19,20,20],"right_children":[2,4,6,8,-1,10,12,14,16,18,20,-1,-1,-1,-1,-1,-1,22,24,26,28,-1,-1,-1,-1,-1,-1,-1,-1],"split_conditions":[6.503214E-1,3.6703703E-1,4.1E1,1.444E3,2.0699121E-1,5.138942E-1,2.697E3,1E0,9.56583E-1,1E0,6.834516E-1,-2.9517806E-1,1.0177886E-1,-2.8618836E-1,-6.569376E-1,-2.0291407E-1,1.9429986E-1,6.518639E-1,3.7787575E-1,2E0,6.584487E-1,8.738969E-2,-2.4635573E-1,3.1106102E-1,-7.597613E-2,-2.5615025E-1,5.650282E-1,1.2617257E-1,-1.0878658E-2],"split_indices":[19,10,0,7,0,9,7,2,9,3,19,0,0,0,0,0,0,22,9,4,9,0,0,0,0,0,0,0,0],"split_type":[0,0,0,0,0,0,0,0,0,0,0,0,0,0,0,0,0,0,0,0,0,0,0,0,0,0,0,0,0],"sum_hessian":[1.6831808E2,1.6194286E1,1.521238E2,1.4858333E1,1.3359537E0,1.4206194E2,1.0061865E1,1.1037445E1,3.820887E0,1.9878925E1,1.2218301E2,8.976354E0,1.0855112E0,9.952096E0,1.0853498E0,1.993814E0,1.8270732E0,1.5734059E1,4.1448655E0,4.3671308E0,1.1781587E2,1.1800745E0,1.4553985E1,2.1962953E0,1.9485701E0,1.2805347E0,3.086596E0,2.5254438E1,9.256143E1],"tree_param":{"num_deleted":"0","num_feature":"29","num_nodes":"29","size_leaf_vector":"1"}},{"base_weights":[-9.1225505E-2,5.519649E-3,-5.2232856E-1,-8.14652E-1,5.2233726E-2,-9.244685E-1,2.91128E-2,-3.064533E-1,-4.5466676E-1,-3.4718224E-1,1.5245251E-1,-1.0239187E0,-1.6997794E-2,-2.5644106E-1,2.7228788E-1,-2.366325E-1,8.06853E-2,1.0820951E-1,-1.0903795E0,1.0344986E0,8.431758E-2,-1.802088E-2,-1.0904936E0,-2.7559245E-1,7.847228E-1,-2.27927E-1,2.0968254E-1,-6.735547E-2,-4.6806616E-1,-1.7491195E-1,5.6061673E-1,2.5417388E-3,2.2876897E-1,-7.54191E-2,-3.410852E-1,-2.1788955E-1,5.4324493E-2,3.401162E-1,-9.1601595E-2],"categories":[],"categories_nodes":[],"categories_segments":[],"categories_sizes":[],"default_left":[0,0,0,0,0,0,0,0,0,0,0,0,0,0,0,0,0,0,0,0,1,0,0,0,0,0,0,0,0,0,0,0,0,0,0,0,0,0,0],"id":15,"left_children":[1,3,5,7,9,11,13,-1,15,17,19,21,-1,-1,23,-1,-1,25,27,29,31,-1,33,35,37,-1,-1,-1,-1,-1,-1,-1,-1,-1,-1,-1,-1,-1,-1],"loss_changes":[6.907901E0,5.2610536E0,6.7582436E0,8.66003E-2,5.2488947E0,1.4595613E0,3.1926653E0,0E0,1.3007149E0,9.033319E0,6.190815E0,9.4306374E-1,0E0,0E0,3.4611626E0,0E0,0E0,9.372291E0,3.7580042E0,1.1077763E1,5.037961E0,0E0,2.85017E-1,1.433536E0,2.7170115E0,0E0,0E0,0E0,0E0,0E0,0E0,0E0,0E0,0E0,0E0,0E0,0E0,0E0,0E0],"parents":[2147483647,0,0,1,1,2,2,3,3,4,4,5,5,6,6,8,8,9,9,10,10,11,11,14,14,17,17,18,18,19,19,20,20,22,22,23,23,24,24],"right_children":[2,4,6,8,10,12,14,-1,16,18,20,22,-1,-1,24,-1,-1,26,28,30,32,-1,34,36,38,-1,-1,-1,-1,-1,-1,-1,-1,-1,-1,-1,-1,-1,-1],"split_conditions":[2.8E1,1.18E2,9.0407825E-1,2.00001E0,3.0411017E-1,2.697E3,7.946007E-1,-3.064533E-1,1E0,8.4954077E-1,1.6E-1,5.153901E-1,-1.6997794E-2,-2.5644106E-1,7.259361E-1,-2.366325E-1,8.06853E-2,7.692308E-1,6.19E2,1E0,9.2467445E-1,-1.802088E-2,3.403812E-1,9.694125E-1,4E0,-2.27927E-1,2.0968254E-1,-6.735547E-2,-4.6806616E-1,-1.7491195E-1,5.6061673E-1,2.5417388E-3,2.2876897E-1,-7.54191E-2,-3.410852E-1,-2.1788955E-1,5.4324493E-2,3.401162E-1,-9.1601595E-2],"split_indices":[0,7,19,25,11,7,20,0,16,19,15,20,0,0,18,0,0,24,7,27,22,0,9,20,4,0,0,0,0,0,0,0,0,0,0,0,0,0,0],"split_type":[0,0,0,0,0,0,0,0,0,0,0,0,0,0,0,0,0,0,0,0,0,0,0,0,0,0,0,0,0,0,0,0,0,0,0,0,0,0,0],"sum_hessian":[1.6455965E2,1.3520506E2,2.9354586E1,6.399969E0,1.288051E2,1.6584118E1,1.2770469E1,2.8973901E0,3.5025787E0,2.5341967E1,1.0346313E2,1.4717604E1,1.8665141E0,2.2126257E0,1.0557843E1,2.3346038E0,1.1679751E0,1.6243322E1,9.098645E0,6.402033E0,9.70611E1,1.0737978E0,1.36438055E1,5.3258214E0,5.2320213E0,6.4622197E0,9.781102E0,3.7203472E0,5.378298E0,2.2807724E0,4.12126E0,8.820952E1,8.851577E0,1.0521152E0,1.2591691E1,2.3832796E0,2.942542E0,3.932823E0,1.2991983E0],"tree_param":{"num_deleted":"0","num_feature":"29","num_nodes":"39","size_leaf_vector":"1"}},{"base_weights":[-7.872255E-2,-6.564365E-1,-1.2620211E-2,-8.790888E-1,4.8147085E-1,-3.9021432E-1,5.6882642E-2,-1.0495579E0,4.035595E-2,-4.5034207E-2,2.6355234E-1,-2.365467E-1,-4.1562483E-1,1.2449009E-1,-6.392978E-1,-7.325223E-1,-5.5238014E-1,-5.924261E-1,2.3473744E-1,8.694305E-3,9.415143E-1,-1.0145155E0,4.463E-1,2.218965E-2,-2.7031356E-1,-8.336699E-4,-3.758987E-1,-8.332067E-2,4.321946E-1,-2.7633896E-1,2.0400511E-2,3.564754E-1,-4.3846954E-2,-3.4827914E-2,-4.3179455E-1,-6.2545545E-2,2.9522055E-1],"categories":[],"categories_nodes":[],"categories_segments":[],"categories_sizes":[],"default_left":[0,0,0,0,0,0,0,0,0,0,0,0,0,0,0,0,0,0,0,0,0,0,0,0,0,0,0,0,0,0,0,0,0,0,0,0,0],"id":16,"left_children":[1,3,5,7,9,11,13,15,-1,-1,-1,17,-1,19,21,23,-1,25,27,29,31,33,35,-1,-1,-1,-1,-1,-1,-1,-1,-1,-1,-1,-1,-1,-1],"loss_changes":[6.117048E0,4.590719E0,3.8262305E0,2.5794077E0,9.689091E-1,3.1377068E0,5.882442E0,1.7116861E0,0E0,0E0,0E0,3.6335382E0,0E0,1.0702688E1,4.9644537E0,1.4756756E0,0E0,4.7308445E0,6.3825336E0,5.586492E0,3.9427557E0,3.090907E0,1.451477E0,0E0,0E0,0E0,0E0,0E0,0E0,0E0,0E0,0E0,0E0,0E0,0E0,0E0,0E0],"parents":[2147483647,0,0,1,1,2,2,3,3,4,4,5,5,6,6,7,7,11,11,13,13,14,14,15,15,17,17,18,18,19,19,20,20,21,21,22,22],"right_children":[2,4,6,8,10,12,14,16,-1,-1,-1,18,-1,20,22,24,-1,26,28,30,32,34,36,-1,-1,-1,-1,-1,-1,-1,-1,-1,-1,-1,-1,-1,-1],"split_conditions":[6.690806E-1,9.059702E-1,9.1555935E-1,1E0,1.203E3,5.4017156E-1,5E0,1E0,4.035595E-2,-4.5034207E-2,2.6355234E-1,8.588076E-1,-4.1562483E-1,2.6E1,4.6947008E-1,1E0,-5.5238014E-1,3.4373266E-1,9.257143E-1,2.8477454E-1,3.354E3,3.3628345E-1,7.236842E-1,2.218965E-2,-2.7031356E-1,-8.336699E-4,-3.758987E-1,-8.332067E-2,4.321946E-1,-2.7633896E-1,2.0400511E-2,3.564754E-1,-4.3846954E-2,-3.4827914E-2,-4.3179455E-1,-6.2545545E-2,2.9522055E-1],"split_indices":[19,20,21,8,7,11,4,2,0,0,0,20,0,5,11,0,0,11,24,10,7,11,23,0,0,0,0,0,0,0,0,0,0,0,0,0,0],"split_type":[0,0,0,0,0,0,0,0,0,0,0,0,0,0,0,0,0,0,0,0,0,0,0,0,0,0,0,0,0,0,0,0,0,0,0,0,0],"sum_hessian":[1.5939836E2,1.5448928E1,1.4394945E2,1.3110977E1,2.3379505E0,2.1660145E1,1.222893E2,1.1193057E1,1.9179196E0,1.1424757E0,1.1954746E0,1.9835121E1,1.8250246E0,1.1221323E2,1.0076065E1,9.36724E0,1.825818E0,1.115479E1,8.68033E0,9.916881E1,1.3044425E1,7.536637E0,2.5394285E0,1.7160342E0,7.6512055E0,6.4243765E0,4.730414E0,6.6317434E0,2.048587E0,5.0747766E0,9.4094025E1,1.0557086E1,2.4873385E0,2.8282874E0,4.7083497E0,1.4212425E0,1.118186E0],"tree_param":{"num_deleted":"0","num_feature":"29","num_nodes":"37","size_leaf_vector":"1"}},{"base_weights":[-6.669086E-2,-4.6433955E-1,7.2403997E-3,-8.067791E-1,2.2044811E-2,-1.1352701E-1,3.095008E-1,-8.690565E-1,1.6187726E-3,4.5312685E-1,-6.968851E-1,-1.0608127E0,-6.804131E-2,7.64855E-2,7.5583696E-1,-2.7872634E-1,-2.3138186E-2,8.351597E-1,-2.067084E-1,-2.6696113E-1,-3.359557E-2,6.0924985E-3,-4.205622E-1,-9.3400544E-1,-2.4905609E-2,-9.136984E-2,8.902433E-1,9.1155386E-1,-1.2566198E-1,-2.4286859E-2,4.07419E-1,-7.9844415E-2,-4.5251808E-1,-9.180428E-2,3.697541E-2,2.9435918E-2,-2.9877904E-1,-4.052545E-2,3.7036833E-1,-5.2889366E-2,3.253033E-1],"categories":[],"categories_nodes":[],"categories_segments":[],"categories_sizes":[],"default_left":[0,0,0,0,0,0,0,1,0,0,0,0,0,1,0,0,0,0,0,0,0,0,0,0,0,0,0,0,0,0,0,0,0,0,0,0,0,0,0,0,0],"id":17,"left_children":[1,3,5,7,9,11,13,15,-1,17,19,21,23,25,27,-1,-1,29,-1,-1,-1,-1,-1,31,33,35,37,39,-1,-1,-1,-1,-1,-1,-1,-1,-1,-1,-1,-1,-1],"loss_changes":[4.605091E0,4.1075788E0,4.8891E0,7.3488045E-1,3.7616217E0,4.0532117E0,3.9182425E0,5.660658E-1,0E0,3.8727689E0,4.1527247E-1,1.6206875E0,3.4291916E0,3.6641777E0,2.7598548E0,0E0,0E0,3.0391521E0,0E0,0E0,0E0,0E0,0E0,1.2703428E0,3.7472093E0,3.980298E0,1.7831161E0,2.4079924E0,0E0,0E0,0E0,0E0,0E0,0E0,0E0,0E0,0E0,0E0,0E0,0E0,0E0],"parents":[2147483647,0,0,1,1,2,2,3,3,4,4,5,5,6,6,7,7,9,9,10,10,11,11,12,12,13,13,14,14,17,17,23,23,24,24,25,25,26,26,27,27],"right_children":[2,4,6,8,10,12,14,16,-1,18,20,22,24,26,28,-1,-1,30,-1,-1,-1,-1,-1,32,34,36,38,40,-1,-1,-1,-1,-1,-1,-1,-1,-1,-1,-1,-1,-1],"split_conditions":[1E0,9E0,1E0,5.58744E-1,3E0,7.2243553E-1,9.0655303E-1,9.477984E-1,1.6187726E-3,4.408037E-1,6.666667E-1,6.439131E-1,6.009025E-1,8.606909E-1,5E0,-2.7872634E-1,-2.3138186E-2,7E0,-2.067084E-1,-2.6696113E-1,-3.359557E-2,6.0924985E-3,-4.205622E-1,1E0,2E0,9.725914E-1,3.9218348E-1,2.9748046E-1,-1.2566198E-1,-2.4286859E-2,4.07419E-1,-7.9844415E-2,-4.5251808E-1,-9.180428E-2,3.697541E-2,2.9435918E-2,-2.9877904E-1,-4.052545E-2,3.7036833E-1,-5.2889366E-2,3.253033E-1],"split_indices":[26,5,8,10,4,21,9,21,0,11,14,21,19,21,4,0,0,0,0,0,0,0,0,3,4,18,11,11,0,0,0,0,0,0,0,0,0,0,0,0,0],"split_type":[0,0,0,0,0,0,0,0,0,0,0,0,0,0,0,0,0,0,0,0,0,0,0,0,0,0,0,0,0,0,0,0,0,0,0,0,0,0,0,0,0],"sum_hessian":[1.5552849E2,2.355488E1,1.319736E2,1.3436305E1,1.0118576E1,9.4743484E1,3.7230118E1,1.2414339E1,1.0219653E0,6.556758E0,3.561818E0,3.318132E0,9.1425354E1,2.52299E1,1.2000219E1,1.1378603E1,1.0357367E0,5.1147428E0,1.4420152E0,2.2861166E0,1.2757013E0,1.0212749E0,2.296857E0,3.3580766E0,8.8067276E1,2.165152E1,3.5783806E0,1.0793479E1,1.2067405E0,2.1656861E0,2.9490564E0,2.22933E0,1.1287464E0,3.002785E1,5.803943E1,1.8638588E1,3.0129306E0,1.05234E0,2.5260408E0,1.4766306E0,9.316848E0],"tree_param":{"num_deleted":"0","num_feature":"29","num_nodes":"41","size_leaf_vector":"1"}},{"base_weights":[-6.008887E-2,8.506003E-2,-2.5653005E-1,-1.0211182E-1,4.9016553E-1,-4.3622747E-1,3.485515E-1,5.366501E-1,-2.6872593E-1,1.0308923E0,2.9914005E-2,-8.3016443E-1,-1.7894796E-1,-3.6573863E-1,6.825342E-1,1.2538233E0,-2.01959E-1,-4.748349E-1,5.653364E-1,-1.6926746E-1,1.8333632E0,8.1318545E-1,-2.9021698E-1,-9.6762246E-1,7.6375995E-3,5.9435904E-1,-3.2676387E-1,9.1515385E-2,-2.165974E-1,1.974495E-2,1.2687094E0,4.7247976E-1,-8.3594486E-2,-2.865552E-1,2.838022E-1,5.3767588E-2,-2.098452E-1,-1.219658E-1,3.2790357E-1,-1.5326008E-1,1.2124938E-1,3.0639447E-2,7.8555846E-1,2.4965059E-2,4.2660296E-1,-2.6438576E-1,1.1764338E-1,-3.05972E-1,-3.578103E-2,2.0715356E-1,-1.7944458E-1,-1.781908E-1,5.057999E-1,-2.185248E-1,2.5781251E-2,-7.63107E-2,1.2348644E-1,-1.4862429E-1,1.8694004E-1,6.506728E-1,1.281232E-1],"categories":[],"categories_nodes":[],"categories_segments":[],"categories_sizes":[],"default_left":[0,0,0,0,0,0,0,0,0,0,0,0,0,0,0,0,0,0,0,0,0,0,0,0,0,0,0,0,0,0,0,0,0,0,0,0,0,0,0,0,0,0,0,0,0,0,0,0,0,0,0,0,0,0,0,0,0,0,0,0,0],"id":18,"left_children":[1,3,5,7,9,11,13,15,17,19,21,23,25,27,29,31,33,35,37,39,41,43,45,47,49,51,53,55,-1,57,59,-1,-1,-1,-1,-1,-1,-1,-1,-1,-1,-1,-1,-1,-1,-1,-1,-1,-1,-1,-1,-1,-1,-1,-1,-1,-1,-1,-1,-1,-1],"loss_changes":[4.3718805E0,6.759495E0,7.227892E0,6.673562E0,6.97138E0,4.9818096E0,3.9370396E0,7.1530876E0,8.747776E0,1.2741073E1,4.305391E0,2.2788181E0,3.840116E0,9.743469E-1,4.2024093E0,3.7592316E0,7.1969337E0,6.0166445E0,5.690833E0,1.3989114E0,1.0361826E1,2.0911238E0,5.289272E0,6.3024616E-1,1.9734627E0,8.101364E0,4.6082196E0,4.7331578E-1,0E0,2.211887E0,3.4365816E0,0E0,0E0,0E0,0E0,0E0,0E0,0E0,0E0,0E0,0E0,0E0,0E0,0E0,0E0,0E0,0E0,0E0,0E0,0E0,0E0,0E0,0E0,0E0,0E0,0E0,0E0,0E0,0E0,0E0,0E0],"parents":[2147483647,0,0,1,1,2,2,3,3,4,4,5,5,6,6,7,7,8,8,9,9,10,10,11,11,12,12,13,13,14,14,15,15,16,16,17,17,18,18,19,19,20,20,21,21,22,22,23,23,24,24,25,25,26,26,27,27,29,29,30,30],"right_children":[2,4,6,8,10,12,14,16,18,20,22,24,26,28,30,32,34,36,38,40,42,44,46,48,50,52,54,56,-1,58,60,-1,-1,-1,-1,-1,-1,-1,-1,-1,-1,-1,-1,-1,-1,-1,-1,-1,-1,-1,-1,-1,-1,-1,-1,-1,-1,-1,-1,-1,-1],"split_conditions":[6E0,2E0,1.949E3,7.530382E-1,2.00001E0,3.6934647E-1,4.888889E-1,1E0,1E0,2.00001E0,3.2142857E-1,1E0,3.424593E-1,2E1,8.850637E-1,1E0,3.1912717E-1,8.9102316E-1,8.47465E-1,7.037037E-1,2.00001E0,8.265389E-1,8.333333E-1,2.8E1,2.6E1,6.234667E-1,9.6368724E-1,2.00001E0,-2.165974E-1,2.00001E0,9.4646084E-1,4.7247976E-1,-8.3594486E-2,-2.865552E-1,2.838022E-1,5.3767588E-2,-2.098452E-1,-1.219658E-1,3.2790357E-1,-1.5326008E-1,1.2124938E-1,3.0639447E-2,7.8555846E-1,2.4965059E-2,4.2660296E-1,-2.6438576E-1,1.1764338E-1,-3.05972E-1,-3.578103E-2,2.0715356E-1,-1.7944458E-1,-1.781908E-1,5.057999E-1,-2.185248E-1,2.5781251E-2,-7.63107E-2,1.2348644E-1,-1.4862429E-1,1.8694004E-1,6.506728E-1,1.281232E-1],"split_indices":[0,0,7,19,27,10,23,3,2,26,14,2,11,0,19,0,10,18,19,24,28,9,23,5,0,9,20,28,0,25,19,0,0,0,0,0,0,0,0,0,0,0,0,0,0,0,0,0,0,0,0,0,0,0,0,0,0,0,0,0,0],"split_type":[0,0,0,0,0,0,0,0,0,0,0,0,0,0,0,0,0,0,0,0,0,0,0,0,0,0,0,0,0,0,0,0,0,0,0,0,0,0,0,0,0,0,0,0,0,0,0,0,0,0,0,0,0,0,0,0,0,0,0,0,0],"sum_hessian":[1.515629E2,8.7486664E1,6.407624E1,6.0350647E1,2.7136013E1,4.9619328E1,1.4456915E1,1.2025729E1,4.8324917E1,1.1907103E1,1.5228911E1,1.8723654E1,3.0895674E1,4.5757203E0,9.881194E0,5.7474933E0,6.278236E0,3.9094734E1,9.230183E0,5.0874615E0,6.819641E0,3.9715264E0,1.1257384E1,1.5951535E1,2.7721183E0,4.4731584E0,2.6422516E1,2.329237E0,2.2464833E0,5.1226687E0,4.7585254E0,4.7289057E0,1.0185875E0,3.8922887E0,2.385947E0,1.00465765E1,2.9048159E1,3.3287418E0,5.9014406E0,3.2565858E0,1.8308758E0,2.4804678E0,4.3391733E0,2.3229907E0,1.6485358E0,5.876004E0,5.38138E0,1.4835028E1,1.116507E0,1.2373977E0,1.5347208E0,2.3600113E0,2.113147E0,1.3002822E1,1.3419693E1,1.2182456E0,1.1109914E0,2.8598993E0,2.2627695E0,1.5372611E0,3.2212646E0],"tree_param":{"num_deleted":"0","num_feature":"29","num_nodes":"61","size_leaf_vector":"1"}},{"base_weights":[-3.728416E-2,-1.8006137E-1,1.3393632E-1,-7.028228E-2,-6.787113E-1,-5.177484E-1,2.0033601E-1,-4.2191842E-1,1.510495E-1,9.01441E-2,-1.2383258E0,-7.5065476E-1,4.197478E-2,4.631607E-1,1.293023E-1,-8.6694795E-1,-5.802611E-2,-3.0498308E-1,3.7349683E-1,-3.4001994E-1,7.416582E-1,4.812095E-2,-1.4680408E0,-7.32589E-2,-2.5706998E-1,-5.601575E-1,2.2111745E-1,-2.0859404E-2,-2.8237793E-1,4.95156E-2,-2.2885467E-1,-2.9029256E-1,4.4122647E-2,2.1548815E-1,-5.9943695E-2,-2.0332956E-1,8.411725E-2,3.026635E-1,3.6292937E-2,-5.764337E-1,-1.4967535E-1,-2.7440044E-1,1.5057704E-1,2.7062604E-1,2.9251734E-2],"categories":[],"categories_nodes":[],"categories_segments":[],"categories_sizes":[],"default_left":[0,0,0,0,0,0,0,0,0,0,0,0,0,0,0,0,0,0,0,0,0,0,0,0,0,0,0,0,0,0,0,0,0,0,0,0,0,0,0,0,0,0,0,0,0],"id":19,"left_children":[1,3,5,7,9,11,13,15,17,19,21,23,-1,-1,25,27,29,31,33,35,37,-1,39,-1,-1,41,43,-1,-1,-1,-1,-1,-1,-1,-1,-1,-1,-1,-1,-1,-1,-1,-1,-1,-1],"loss_changes":[3.6457202E0,4.397773E0,3.0434296E0,5.330503E0,6.36636E0,1.109987E0,5.7532187E0,4.2257204E0,4.4016304E0,2.2296286E0,2.9605598E0,5.9907913E-2,0E0,0E0,3.9431973E0,6.3416386E-1,2.5784268E0,4.4584656E0,5.8482194E0,1.2242285E0,3.9548123E-1,0E0,2.285614E0,0E0,0E0,3.2353535E0,4.454236E0,0E0,0E0,0E0,0E0,0E0,0E0,0E0,0E0,0E0,0E0,0E0,0E0,0E0,0E0,0E0,0E0,0E0,0E0],"parents":[2147483647,0,0,1,1,2,2,3,3,4,4,5,5,6,6,7,7,8,8,9,9,10,10,11,11,14,14,15,15,16,16,17,17,18,18,19,19,20,20,22,22,25,25,26,26],"right_children":[2,4,6,8,10,12,14,16,18,20,22,24,-1,-1,26,28,30,32,34,36,38,-1,40,-1,-1,42,44,-1,-1,-1,-1,-1,-1,-1,-1,-1,-1,-1,-1,-1,-1,-1,-1,-1,-1],"split_conditions":[8.333333E-1,7.222222E-1,6.122818E-1,4E0,8.5792875E-1,4.9389482E-1,6.505271E-1,4.050599E-1,2.00001E0,7.5294536E-1,1.92E2,5.343211E-1,4.197478E-2,4.631607E-1,7.5221246E-1,6.697823E-1,2.7E1,8.029689E-1,4.3837857E-1,1.161E3,7.546277E-1,4.812095E-2,8.748196E-1,-7.32589E-2,-2.5706998E-1,5.010158E-1,9.725914E-1,-2.0859404E-2,-2.8237793E-1,4.95156E-2,-2.2885467E-1,-2.9029256E-1,4.4122647E-2,2.1548815E-1,-5.9943695E-2,-2.0332956E-1,8.411725E-2,3.026635E-1,3.6292937E-2,-5.764337E-1,-1.4967535E-1,-2.7440044E-1,1.5057704E-1,2.7062604E-1,2.9251734E-2],"split_indices":[23,24,9,5,18,10,9,10,28,18,7,18,0,0,9,21,0,20,11,7,9,0,9,0,0,11,18,0,0,0,0,0,0,0,0,0,0,0,0,0,0,0,0,0,0],"split_type":[0,0,0,0,0,0,0,0,0,0,0,0,0,0,0,0,0,0,0,0,0,0,0,0,0,0,0,0,0,0,0,0,0,0,0,0,0,0,0,0,0,0,0,0,0],"sum_hessian":[1.4714478E2,8.020874E1,6.693604E1,6.667173E1,1.353701E1,5.5608845E0,6.1375156E1,2.540454E1,4.126719E1,6.0558224E0,7.481188E0,4.002158E0,1.5587263E0,2.0408168E0,5.933434E1,1.0806311E1,1.45982275E1,1.3408269E1,2.7858921E1,3.9355032E0,2.120319E0,1.0978904E0,6.3832974E0,1.2659485E0,2.7362096E0,6.3734927E0,5.2960846E1,1.0862088E0,9.720102E0,1.1670357E1,2.9278712E0,4.975019E0,8.43325E0,1.723852E1,1.0620401E1,2.4883988E0,1.4471046E0,1.0449879E0,1.075331E0,3.6792796E0,2.7040176E0,4.882549E0,1.4909436E0,7.169079E0,4.5791767E1],"tree_param":{"num_deleted":"0","num_feature":"29","num_nodes":"45","size_leaf_vector":"1"}},{"base_weights":[-3.934107E-2,-6.93889E-1,-2.1159786E-3,-2.5096872E-1,-2.1578996E-1,-6.00455E-1,3.831192E-2,-1.8038422E-1,8.1281945E-2,8.4326684E-2,-8.5827607E-1,6.415498E-1,-4.7556967E-3,-2.2140817E-1,-3.3212572E-1,-3.266857E-1,1.2664125E0,-4.9995843E-1,8.084247E-2,9.290825E-2,-1.8226674E-1,-2.1585523E-1,1.16065726E-1,5.50894E-1,1.5251583E-3,3.9865196E-2,-3.0722225E-1,-1.8859603E-1,5.0719284E-2],"categories":[],"categories_nodes":[],"categories_segments":[],"categories_sizes":[],"default_left":[0,0,0,0,0,0,0,0,0,0,0,0,0,0,0,0,0,0,0,0,0,0,0,0,0,0,0,0,0],"id":20,"left_children":[1,3,5,-1,7,9,11,-1,-1,-1,13,15,17,19,-1,21,23,25,27,-1,-1,-1,-1,-1,-1,-1,-1,-1,-1],"loss_changes":[3.5650203E0,3.5654473E-1,3.3974624E0,0E0,7.5529456E-1,2.2615566E0,3.422317E0,0E0,0E0,0E0,8.837886E-1,5.724229E0,5.289543E0,8.549627E-1,0E0,1.4662678E0,3.9728174E0,6.2356505E0,6.7689385E0,0E0,0E0,0E0,0E0,0E0,0E0,0E0,0E0,0E0,0E0],"parents":[2147483647,0,0,1,1,2,2,4,4,5,5,6,6,10,10,11,11,12,12,13,13,15,15,16,16,17,17,18,18],"right_children":[2,4,6,-1,8,10,12,-1,-1,-1,14,16,18,20,-1,22,24,26,28,-1,-1,-1,-1,-1,-1,-1,-1,-1,-1],"split_conditions":[1.18E2,9.195809E-1,5.771698E-1,-2.5096872E-1,9.032459E-1,2.00001E0,1.6E-1,-1.8038422E-1,8.1281945E-2,8.4326684E-2,6.527871E-1,1E0,3.529412E-1,2.7493855E-1,-3.3212572E-1,1.25E-1,9.414016E-1,7.348675E-1,5.4452735E-1,9.290825E-2,-1.8226674E-1,-2.1585523E-1,1.16065726E-1,5.50894E-1,1.5251583E-3,3.9865196E-2,-3.0722225E-1,-1.8859603E-1,5.0719284E-2],"split_indices":[7,9,20,0,20,28,15,0,0,0,9,27,15,11,0,14,19,18,9,0,0,0,0,0,0,0,0,0,0],"split_type":[0,0,0,0,0,0,0,0,0,0,0,0,0,0,0,0,0,0,0,0,0,0,0,0,0,0,0,0,0],"sum_hessian":[1.4537389E2,6.8734865E0,1.3850041E2,4.7162924E0,2.1571937E0,7.8890333E0,1.3061137E2,1.0724576E0,1.0847361E0,1.7647471E0,6.124286E0,7.7774963E0,1.2283388E2,2.2513828E0,3.8729036E0,3.237744E0,4.5397525E0,1.738977E1,1.0544411E2,1.0311471E0,1.2202356E0,2.0827992E0,1.1549448E0,2.812938E0,1.7268145E0,8.215926E0,9.173844E0,1.0983882E1,9.446022E1],"tree_param":{"num_deleted":"0","num_feature":"29","num_nodes":"29","size_leaf_vector":"1"}},{"base_weights":[-3.6242004E-2,8.020548E-5,-6.23558E-1,-5.2422595E-1,3.7533242E-2,-7.8079855E-1,7.900763E-2,-7.7682406E-1,1.17966756E-1,2.2243762E-1,-9.177682E-2,-1.5613969E-2,-2.6922512E-1,-3.3599484E-1,4.499111E-2,-6.062098E-1,3.5449964E-1,1.217819E-2,-9.160638E-1,8.2936674E-2,-5.8857117E-2,-2.526353E-1,1.33544905E-2,2.2385518E-1,2.8117394E-2,-1.183505E-1,5.7706427E-2,4.0331595E-2,-1.3116155E0],"categories":[],"categories_nodes":[],"categories_segments":[],"categories_sizes":[],"default_left":[0,0,0,0,0,0,0,0,0,0,0,0,0,0,0,0,0,0,0,0,0,0,0,0,0,0,0,0,0],"id":21,"left_children":[1,3,5,7,9,11,-1,13,-1,15,17,-1,-1,-1,19,21,23,25,27,-1,-1,-1,-1,-1,-1,-1,-1,-1,-1],"loss_changes":[3.0538065E0,2.6865997E0,1.3683741E0,2.4193435E0,3.0734963E0,5.7659435E-1,0E0,2.1622138E0,0E0,5.9974604E0,6.5106E0,0E0,0E0,0E0,2.3104598E-1,1.2091908E0,4.649864E0,5.083577E0,3.1474796E1,0E0,0E0,0E0,0E0,0E0,0E0,0E0,0E0,0E0,0E0],"parents":[2147483647,0,0,1,1,2,2,3,3,4,4,5,5,7,7,9,9,10,10,14,14,15,15,16,16,17,17,18,18],"right_children":[2,4,6,8,10,12,-1,14,-1,16,18,-1,-1,-1,20,22,24,26,28,-1,-1,-1,-1,-1,-1,-1,-1,-1,-1],"split_conditions":[4E1,6.503214E-1,3.3E1,3.759778E-1,3.5443556E-1,4.14532E-1,7.900763E-2,1.444E3,1.17966756E-1,6.420975E-1,1E0,-1.5613969E-2,-2.6922512E-1,-3.3599484E-1,1E0,1E0,6.19E2,8.8502365E-1,4.408617E-1,8.2936674E-2,-5.8857117E-2,-2.526353E-1,1.33544905E-2,2.2385518E-1,2.8117394E-2,-1.183505E-1,5.7706427E-2,4.0331595E-2,-1.3116155E0],"split_indices":[0,19,5,11,11,9,0,7,0,18,14,0,0,0,0,3,7,20,10,0,0,0,0,0,0,0,0,0,0],"split_type":[0,0,0,0,0,0,0,0,0,0,0,0,0,0,0,0,0,0,0,0,0,0,0,0,0,0,0,0,0],"sum_hessian":[1.4214966E2,1.3481213E2,7.3375134E0,8.121543E0,1.266906E2,6.3341813E0,1.0033321E0,6.4883924E0,1.6331506E0,5.184116E1,7.4849434E1,1.0733136E0,5.2608676E0,4.3212056E0,2.1671867E0,6.6327024E0,4.5208458E1,6.734184E1,7.507595E0,1.0312395E0,1.1359471E0,4.652064E0,1.9806386E0,1.7324953E1,2.7883503E1,2.0310072E1,4.703177E1,6.4945674E0,1.0130274E0],"tree_param":{"num_deleted":"0","num_feature":"29","num_nodes":"29","size_leaf_vector":"1"}},{"base_weights":[-3.8724408E-2,-5.9759185E-2,2.611354E-1,-1.3508426E-1,1.6526872E-1,-1.0279415E-1,-4.6132514E-1,3.682025E-1,-3.364621E-1,2.7039E-1,-1.7198555E-1,1.2704839E-1,8.9281553E-1,-1.2783699E0,8.5725985E-2,-1.5538599E-1,2.1171671E-1,-2.028397E-1,-1.6247686E-2,-2.0865053E-1,9.6718594E-2,3.626062E-1,-6.97204E-2,-6.3976474E-2,-5.710628E-1,-1.1650125E-1,2.2497147E-1],"categories":[],"categories_nodes":[],"categories_segments":[],"categories_sizes":[],"default_left":[0,0,0,0,0,0,0,0,0,0,0,0,0,0,0,0,0,0,0,0,0,0,0,0,0,0,0],"id":22,"left_children":[1,3,-1,5,7,9,-1,11,13,15,17,19,21,23,25,-1,-1,-1,-1,-1,-1,-1,-1,-1,-1,-1,-1],"loss_changes":[2.7687178E0,2.3916016E0,0E0,4.610014E0,3.738893E0,2.7312937E0,0E0,3.145179E0,4.383403E0,6.080218E0,5.210046E0,3.246939E0,3.104926E0,1.850832E0,2.922902E0,0E0,0E0,0E0,0E0,0E0,0E0,0E0,0E0,0E0,0E0,0E0,0E0],"parents":[2147483647,0,0,1,1,3,3,4,4,5,5,7,7,8,8,9,9,10,10,11,11,12,12,13,13,14,14],"right_children":[2,4,-1,6,8,10,-1,12,14,16,18,20,22,24,26,-1,-1,-1,-1,-1,-1,-1,-1,-1,-1,-1,-1],"split_conditions":[7.82477E-1,1.72E3,2.611354E-1,4.6E1,9.519049E-1,4.2857143E-1,-4.6132514E-1,3.9839014E-1,9.987152E-1,2.5396827E-1,5.3333336E-1,1.1E1,4E0,4.501714E-1,6.363636E-1,-1.5538599E-1,2.1171671E-1,-2.028397E-1,-1.6247686E-2,-2.0865053E-1,9.6718594E-2,3.626062E-1,-6.97204E-2,-6.3976474E-2,-5.710628E-1,-1.1650125E-1,2.2497147E-1],"split_indices":[12,7,0,5,19,23,0,11,22,24,24,5,4,11,15,0,0,0,0,0,0,0,0,0,0,0,0],"split_type":[0,0,0,0,0,0,0,0,0,0,0,0,0,0,0,0,0,0,0,0,0,0,0,0,0,0,0],"sum_hessian":[1.4105482E2,1.387783E2,2.2765167E0,1.0427376E2,3.4504547E1,1.0297647E2,1.2972882E0,2.4757198E1,9.747346E0,1.5651606E1,8.732487E1,1.7811695E1,6.9455047E0,2.3891516E0,7.358195E0,5.5006647E0,1.0150942E1,1.5645182E1,7.167969E1,2.9269216E0,1.4884773E1,5.3651996E0,1.580305E0,1.3796823E0,1.0094692E0,4.5359397E0,2.822255E0],"tree_param":{"num_deleted":"0","num_feature":"29","num_nodes":"27","size_leaf_vector":"1"}},{"base_weights":[-3.5929803E-2,-2.773719E-1,4.1327745E-2,-3.3697993E-2,-8.339475E-1,-2.1242805E-1,1.6685951E-1,-4.736467E-1,4.7682905E-1,-2.4064148E-2,-1.0054313E0,2.69131E-2,-1.2744825E0,-2.7194386E-2,4.829509E-1,-1.1104157E0,2.37072E-2,1.0682561E0,-3.389217E-1,-1.2625277E0,-1.4452809E-1,-7.5858074E-1,3.8816163E-1,1.1963519E-1,-1.823929E0,1.7699747E-1,-5.8394223E-1,8.3897835E-1,3.039089E-2,-8.006704E-2,-3.723457E-1,2.6158583E-1,-1.02420345E-1,3.9193088E-1,-5.9394956E-2,1.8287237E-1,-2.7740738E-1,5.1494267E-2,-4.7428954E-1,-2.8194788E-1,2.1850315E-1,-4.1679713E-1,1.7174804E-1,3.405084E-1,-7.5899535E-3,-9.445729E-3,-9.35678E-1,-2.8916089E-2,1.798808E-1,-2.331399E-1,3.4443047E-2,-5.8347195E-2,3.8322407E-1,2.4767204E-1,-8.325872E-2],"categories":[],"categories_nodes":[],"categories_segments":[],"categories_sizes":[],"default_left":[0,0,0,0,0,0,0,0,0,0,0,0,0,0,0,0,0,0,0,0,0,0,0,0,0,0,0,0,0,0,0,0,0,0,0,0,0,0,0,0,0,0,0,0,0,0,0,0,0,0,0,0,0,0,0],"id":23,"left_children":[1,3,5,7,9,11,13,15,17,-1,19,21,23,25,27,29,31,33,35,37,39,41,43,-1,45,47,49,51,53,-1,-1,-1,-1,-1,-1,-1,-1,-1,-1,-1,-1,-1,-1,-1,-1,-1,-1,-1,-1,-1,-1,-1,-1,-1,-1],"loss_changes":[2.6204584E0,4.58794E0,3.4385324E0,5.7767835E0,1.2534637E0,9.13391E0,4.4316406E0,4.3892803E0,6.1215343E0,0E0,1.6594696E0,8.862159E0,6.799176E0,5.285048E0,4.3980722E0,3.3729935E-1,2.9964259E0,2.4184446E0,3.7731068E0,3.138935E0,2.7969458E0,9.065222E0,6.619604E0,0E0,1.1858761E1,3.999387E0,1.771718E0,7.1939116E0,3.4430575E0,0E0,0E0,0E0,0E0,0E0,0E0,0E0,0E0,0E0,0E0,0E0,0E0,0E0,0E0,0E0,0E0,0E0,0E0,0E0,0E0,0E0,0E0,0E0,0E0,0E0,0E0],"parents":[2147483647,0,0,1,1,2,2,3,3,4,4,5,5,6,6,7,7,8,8,10,10,11,11,12,12,13,13,14,14,15,15,16,16,17,17,18,18,19,19,20,20,21,21,22,22,24,24,25,25,26,26,27,27,28,28],"right_children":[2,4,6,8,10,12,14,16,18,-1,20,22,24,26,28,30,32,34,36,38,40,42,44,-1,46,48,50,52,54,-1,-1,-1,-1,-1,-1,-1,-1,-1,-1,-1,-1,-1,-1,-1,-1,-1,-1,-1,-1,-1,-1,-1,-1,-1,-1],"split_conditions":[1E0,3E0,1E0,2E0,6.0867524E-1,4.3268263E-1,7.9761434E-1,8.397138E-1,5E0,-2.4064148E-2,9.999999E-1,2E0,4.2406487E-1,7.0074713E-1,1.7E1,1E0,3.3277953E-1,4.8595116E-1,3.548387E-1,7.158982E-1,3.4009543E-1,1E0,6E0,1.1963519E-1,8.7186027E-1,6.234667E-1,5.2842736E-1,3.97E2,3.7931034E-1,-8.006704E-2,-3.723457E-1,2.6158583E-1,-1.02420345E-1,3.9193088E-1,-5.9394956E-2,1.8287237E-1,-2.7740738E-1,5.1494267E-2,-4.7428954E-1,-2.8194788E-1,2.1850315E-1,-4.1679713E-1,1.7174804E-1,3.405084E-1,-7.5899535E-3,-9.445729E-3,-9.35678E-1,-2.8916089E-2,1.798808E-1,-2.331399E-1,3.4443047E-2,-5.8347195E-2,3.8322407E-1,2.4767204E-1,-8.325872E-2],"split_indices":[25,4,0,4,9,11,9,19,0,0,9,5,10,9,5,27,10,13,15,20,10,9,5,0,18,9,10,7,14,0,0,0,0,0,0,0,0,0,0,0,0,0,0,0,0,0,0,0,0,0,0,0,0,0,0],"split_type":[0,0,0,0,0,0,0,0,0,0,0,0,0,0,0,0,0,0,0,0,0,0,0,0,0,0,0,0,0,0,0,0,0,0,0,0,0,0,0,0,0,0,0,0,0,0,0,0,0,0,0,0,0,0,0],"sum_hessian":[1.3886835E2,3.303585E1,1.058325E2,2.371413E1,9.321718E0,3.479799E1,7.103451E1,1.2776322E1,1.0937807E1,1.999769E0,7.3219495E0,2.9193659E1,5.604329E0,4.458003E1,2.6454477E1,5.0623193E0,7.7140036E0,6.161282E0,4.7765255E0,5.278951E0,2.0429986E0,8.8501425E0,2.0343515E1,1.4531527E0,4.1511765E0,3.3116405E1,1.1463626E1,1.4328468E1,1.2126009E1,1.0874454E0,3.9748735E0,1.9034863E0,5.8105173E0,5.1591067E0,1.0021753E0,1.808121E0,2.9684043E0,1.042903E0,4.236048E0,1.028865E0,1.0141336E0,5.9750457E0,2.8750973E0,6.6271725E0,1.3716343E1,2.17081E0,1.9803665E0,2.0577005E1,1.2539399E1,8.892782E0,2.5708444E0,4.433746E0,9.894723E0,2.9155824E0,9.210426E0],"tree_param":{"num_deleted":"0","num_feature":"29","num_nodes":"55","size_leaf_vector":"1"}},{"base_weights":[-3.3762757E-2,-2.2642827E-1,-1.1157291E-2,-7.397162E-1,1.1812516E-2,-2.7358735E-1,-3.024345E-2,-6.6951006E-3,2.4912922E-1,1.623393E-1,-1.14747986E-1,-2.9203167E-2,1.3786942E-1,-2.2278677E-1,6.160337E-3],"categories":[],"categories_nodes":[],"categories_segments":[],"categories_sizes":[],"default_left":[0,0,0,0,0,0,0,0,0,0,0,0,0,0,0],"id":24,"left_children":[1,-1,3,5,7,-1,-1,9,-1,11,13,-1,-1,-1,-1],"loss_changes":[2.2550857E0,0E0,2.2791786E0,3.6611867E-1,2.0131598E0,0E0,0E0,2.4034696E0,0E0,4.006745E0,6.830841E0,0E0,0E0,0E0,0E0],"parents":[2147483647,0,0,2,2,3,3,4,4,7,7,9,9,10,10],"right_children":[2,-1,4,6,8,-1,-1,10,-1,12,14,-1,-1,-1,-1],"split_conditions":[9.2E1,-2.2642827E-1,5.972341E-1,3.5219216E-1,7.82477E-1,-2.7358735E-1,-3.024345E-2,6.26E2,2.4912922E-1,3.58E2,8.62E2,-2.9203167E-2,1.3786942E-1,-2.2278677E-1,6.160337E-3],"split_indices":[7,0,19,11,12,0,0,7,0,7,7,0,0,0,0],"split_type":[0,0,0,0,0,0,0,0,0,0,0,0,0,0,0],"sum_hessian":[1.3787825E2,3.2068791E0,1.3467137E2,3.1623929E0,1.3150897E2,2.154253E0,1.0081398E0,1.295714E2,1.9375756E0,5.033171E1,7.923969E1,2.7221245E1,2.3110466E1,1.3250745E1,6.5988945E1],"tree_param":{"num_deleted":"0","num_feature":"29","num_nodes":"15","size_leaf_vector":"1"}},{"base_weights":[-2.8250277E-2,6.87774E-2,-1.8237181E-1,3.3777148E-1,-1.00727886E-1,-6.042219E-1,1.5865106E-2,6.3351375E-1,-1.5454149E-1,2.01686E-1,-4.024478E-1,-3.110293E-1,-9.89106E-1,-6.514626E-1,1.6168773E-1,2.1140896E-1,1.3275057E0,-9.924427E-1,1.9486235E-1,-6.826763E-1,3.338843E-1,1.8170656E-1,-6.8856585E-1,-6.346903E-1,2.4326362E-1,-1.2106354E0,4.462677E-2,-2.6323628E-1,2.1438008E-2,-1.2823363E-1,5.3631425E-1,2.2887564E-1,-6.1538126E-2,6.2179124E-1,1.4851788E-1,3.570876E-2,-6.4936197E-1,-1.6783646E-1,1.4797285E-1,-4.7554217E-2,-2.4430119E-1,-1.7342578E-1,1.244029E-1,3.5355297E-1,-3.3361446E-2,-6.9653773E-1,-9.7789444E-2,-2.615882E-1,6.185809E-2,-3.4485497E-2,2.3472016E-1,-2.1571778E-1,-5.4553664E-1,4.8288886E-2,-1.8919474E-1,-1.4657019E-1,2.2263615E-1],"categories":[],"categories_nodes":[],"categories_segments":[],"categories_sizes":[],"default_left":[0,0,0,0,0,0,0,0,0,0,0,0,1,0,0,0,0,0,0,0,0,0,0,0,0,0,0,0,0,0,0,0,0,0,0,0,0,0,0,0,0,0,0,0,0,0,0,0,0,0,0,0,0,0,0,0,0],"id":25,"left_children":[1,3,5,7,9,11,13,15,17,19,21,23,25,27,29,31,33,35,37,39,41,43,45,47,49,51,-1,-1,-1,53,55,-1,-1,-1,-1,-1,-1,-1,-1,-1,-1,-1,-1,-1,-1,-1,-1,-1,-1,-1,-1,-1,-1,-1,-1,-1,-1],"loss_changes":[2.0773206E0,3.9305513E0,4.4933696E0,4.9410815E0,4.934793E0,1.6295152E0,3.7496912E0,5.8642445E0,4.083452E0,3.411716E0,4.6313453E0,2.164176E0,1.9354801E0,1.1924117E0,3.4939249E0,3.426119E0,3.7773561E0,5.565508E0,2.5746088E0,1.3798344E-1,2.0347524E0,2.950139E0,1.0084195E1,1.6462007E0,1.0271449E0,4.667797E-1,0E0,0E0,0E0,2.801801E0,3.3052077E0,0E0,0E0,0E0,0E0,0E0,0E0,0E0,0E0,0E0,0E0,0E0,0E0,0E0,0E0,0E0,0E0,0E0,0E0,0E0,0E0,0E0,0E0,0E0,0E0,0E0,0E0],"parents":[2147483647,0,0,1,1,2,2,3,3,4,4,5,5,6,6,7,7,8,8,9,9,10,10,11,11,12,12,13,13,14,14,15,15,16,16,17,17,18,18,19,19,20,20,21,21,22,22,23,23,24,24,25,25,29,29,30,30],"right_children":[2,4,6,8,10,12,14,16,18,20,22,24,26,28,30,32,34,36,38,40,42,44,46,48,50,52,-1,-1,-1,54,56,-1,-1,-1,-1,-1,-1,-1,-1,-1,-1,-1,-1,-1,-1,-1,-1,-1,-1,-1,-1,-1,-1,-1,-1,-1,-1],"split_conditions":[6E0,8.4384245E-1,8.155054E-1,9.999999E-1,2.00001E0,3.4450382E-1,3.7439436E-1,9.8770183E-1,2.8246808E-1,1E0,8.9102316E-1,1.7E1,8.3980113E-1,6.5217394E-1,5.6E-1,3.1987524E-1,9.31E2,3.1247818E-1,2.9476416E-1,5.833333E-1,5.434893E-1,8.0469275E-1,8.367592E-1,7.698557E-1,9.4906497E-1,8.408068E-1,4.462677E-2,-2.6323628E-1,2.1438008E-2,4.3333334E-1,1.9E2,2.2887564E-1,-6.1538126E-2,6.2179124E-1,1.4851788E-1,3.570876E-2,-6.4936197E-1,-1.6783646E-1,1.4797285E-1,-4.7554217E-2,-2.4430119E-1,-1.7342578E-1,1.244029E-1,3.5355297E-1,-3.3361446E-2,-6.9653773E-1,-9.7789444E-2,-2.615882E-1,6.185809E-2,-3.4485497E-2,2.3472016E-1,-2.1571778E-1,-5.4553664E-1,4.8288886E-2,-1.8919474E-1,-1.4657019E-1,2.2263615E-1],"split_indices":[0,19,19,9,25,10,10,18,10,28,18,5,21,14,24,10,7,11,11,23,18,20,9,19,18,9,0,0,0,24,7,0,0,0,0,0,0,0,0,0,0,0,0,0,0,0,0,0,0,0,0,0,0,0,0,0,0],"split_type":[0,0,0,0,0,0,0,0,0,0,0,0,0,0,0,0,0,0,0,0,0,0,0,0,0,0,0,0,0,0,0,0,0,0,0,0,0,0,0,0,0,0,0,0,0,0,0,0,0,0,0,0,0,0,0,0,0],"sum_hessian":[1.3707477E2,8.445783E1,5.2616936E1,3.226409E1,5.219374E1,1.6166496E1,3.645044E1,1.9976809E1,1.2287281E1,2.6232475E1,2.5961266E1,1.0202594E1,5.9639034E0,5.914846E0,3.0535595E1,1.3232854E1,6.7439547E0,3.0743442E0,9.212937E0,2.8698835E0,2.3362593E1,8.65522E0,1.7306047E1,6.349796E0,3.852798E0,4.9384785E0,1.0254248E0,4.3433266E0,1.5715194E0,1.7584642E1,1.2950953E1,5.336088E0,7.8967657E0,2.7724705E0,3.9714844E0,2.0391319E0,1.0352125E0,2.3633432E0,6.8495936E0,1.0186075E0,1.851276E0,1.4003531E0,2.1962238E1,1.2790536E0,7.3761663E0,2.1625113E0,1.5143536E1,4.923567E0,1.426229E0,2.7875018E0,1.0652963E0,3.9372387E0,1.0012399E0,1.1591851E1,5.992791E0,1.9360111E0,1.1014941E1],"tree_param":{"num_deleted":"0","num_feature":"29","num_nodes":"57","size_leaf_vector":"1"}},{"base_weights":[-3.5391197E-2,-2.4934152E-1,2.7411394E-2,2.4490069E-1,-3.288302E-1,-3.0773567E-2,3.8763374E-1,2.2025517E-1,-4.1198096E-1,-9.444263E-1,2.9109186E-4,6.2447935E-1,-2.702137E-1,-1.1735719E-2,-6.866046E-1,-8.3321504E-2,-3.408896E-1,-5.0652033E-1,5.5780806E-2,-4.648365E-2,7.752042E-1,-2.3570535E-1,1.05191246E-1,-2.5379845E-1,3.4258023E-2,-3.54323E-2,-3.1623152E-1,2.93642E-1,-2.0239125E-3,3.486904E-1,1.4469655E-1],"categories":[],"categories_nodes":[],"categories_segments":[],"categories_sizes":[],"default_left":[0,0,0,0,0,0,0,0,0,0,0,0,0,0,0,0,0,0,0,0,0,0,0,0,0,0,0,0,0,0,0],"id":26,"left_children":[1,3,5,-1,7,9,11,-1,13,15,17,19,-1,21,23,-1,-1,25,27,-1,29,-1,-1,-1,-1,-1,-1,-1,-1,-1,-1],"loss_changes":[1.8319998E0,2.8879535E0,2.2317808E0,0E0,2.909102E0,2.614555E0,5.079116E0,0E0,3.0686388E0,7.1885586E-2,2.5615687E0,1.6583667E0,0E0,3.7553585E0,2.213293E0,0E0,0E0,1.7872825E0,4.7444634E0,0E0,7.0223236E-1,0E0,0E0,0E0,0E0,0E0,0E0,0E0,0E0,0E0,0E0],"parents":[2147483647,0,0,1,1,2,2,4,4,5,5,6,6,8,8,9,9,10,10,11,11,13,13,14,14,17,17,18,18,20,20],"right_children":[2,4,6,-1,8,10,12,-1,14,16,18,20,-1,22,24,-1,-1,26,28,-1,30,-1,-1,-1,-1,-1,-1,-1,-1,-1,-1],"split_conditions":[1E0,2.4502751E-1,1E0,2.4490069E-1,1.4285715E-1,2.4371058E-1,6E0,2.2025517E-1,1E0,7.0589495E-1,6.310931E-1,5.6666666E-1,-2.702137E-1,2.96E2,5.2842736E-1,-8.3321504E-2,-3.408896E-1,7.027027E-1,6.7559373E-1,-4.648365E-2,3.093891E-1,-2.3570535E-1,1.05191246E-1,-2.5379845E-1,3.4258023E-2,-3.54323E-2,-3.1623152E-1,2.93642E-1,-2.0239125E-3,3.486904E-1,1.4469655E-1],"split_indices":[25,10,2,0,15,10,4,0,0,20,20,23,0,7,10,0,0,15,20,0,11,0,0,0,0,0,0,0,0,0,0],"split_type":[0,0,0,0,0,0,0,0,0,0,0,0,0,0,0,0,0,0,0,0,0,0,0,0,0,0,0,0,0,0,0],"sum_hessian":[1.34835E2,2.9923616E1,1.04911385E2,1.4336287E0,2.8489988E1,9.110948E1,1.3801901E1,1.4988512E0,2.6991137E1,2.0290973E0,8.908038E1,1.20938835E1,1.708017E0,1.1407792E1,1.5583345E1,1.0004405E0,1.0286567E0,7.988628E0,8.109176E1,1.9551994E0,1.0138684E1,3.2654183E0,8.142373E0,1.2949457E1,2.6338887E0,5.384783E0,2.6038446E0,4.215054E0,7.68767E1,3.0883625E0,7.050322E0],"tree_param":{"num_deleted":"0","num_feature":"29","num_nodes":"31","size_leaf_vector":"1"}},{"base_weights":[-2.8429054E-2,-4.5983833E-3,-5.01594E-1,-2.9963601E-2,5.8714694E-1,-6.7566913E-1,5.0610766E-2,-5.482072E-1,5.7794703E-5,-7.261263E-2,1.1212758E0,-2.2804743E-1,-5.1990364E-2,8.045538E-2,-8.0547744E-1,1.3581927E-1,-1.3702504E-1,4.5161E-1,3.5018634E-2,-2.983612E-1,-6.0598668E-2,-2.420946E-2,1.3095884E-1,-7.495053E-2,1.2580082E-1],"categories":[],"categories_nodes":[],"categories_segments":[],"categories_sizes":[],"default_left":[0,0,0,0,0,0,0,0,0,0,0,0,0,0,0,0,0,0,0,0,0,0,0,0,0],"id":27,"left_children":[1,3,5,7,9,11,-1,13,15,-1,17,-1,-1,-1,19,21,23,-1,-1,-1,-1,-1,-1,-1,-1],"loss_changes":[1.5031905E0,1.9406811E0,8.5990393E-1,1.9262823E0,2.625289E0,9.214187E-2,0E0,1.6399286E0,2.2151847E0,0E0,1.1400156E0,0E0,0E0,0E0,4.1575956E-1,3.9288874E0,3.8219838E0,0E0,0E0,0E0,0E0,0E0,0E0,0E0,0E0],"parents":[2147483647,0,0,1,1,2,2,3,3,4,4,5,5,7,7,8,8,10,10,14,14,15,15,16,16],"right_children":[2,4,6,8,10,12,-1,14,16,-1,18,-1,-1,-1,20,22,24,-1,-1,-1,-1,-1,-1,-1,-1],"split_conditions":[4E1,3.5E1,2.546E3,5.771698E-1,4.2007357E-1,4.9389482E-1,5.0610766E-2,2.00001E0,2.00001E0,-7.261263E-2,2.826087E-1,-2.2804743E-1,-5.1990364E-2,8.045538E-2,1E0,2.00001E0,8.181818E-1,4.5161E-1,3.5018634E-2,-2.983612E-1,-6.0598668E-2,-2.420946E-2,1.3095884E-1,-7.495053E-2,1.2580082E-1],"split_indices":[0,0,7,20,10,10,0,28,27,0,14,0,0,0,8,26,15,0,0,0,0,0,0,0,0],"split_type":[0,0,0,0,0,0,0,0,0,0,0,0,0,0,0,0,0,0,0,0,0,0,0,0,0],"sum_hessian":[1.3251532E2,1.2712259E2,5.392735E0,1.22807785E2,4.3148026E0,4.274609E0,1.1181256E0,5.779459E0,1.1702833E2,1.9047261E0,2.4100766E0,3.2199273E0,1.0546819E0,1.3747047E0,4.4047546E0,5.8802174E1,5.822615E1,1.3828052E0,1.0272714E0,2.860586E0,1.5441686E0,3.4612274E1,2.4189901E1,4.886835E1,9.3578E0],"tree_param":{"num_deleted":"0","num_feature":"29","num_nodes":"25","size_leaf_vector":"1"}},{"base_weights":[-2.1441143E-2,-3.0720744E-1,1.877533E-2,2.3439042E-1,-6.732747E-1,1.335883E-1,-1.5990095E-1,-3.43013E-1,5.8036935E-1,-2.9704034E-1,-5.370254E-2,-4.1296998E-1,2.096825E-1,-1.8635426E-2,-1.7535496E0,-2.2726211E-1,1.8518932E-1,-2.0506863E-1,1.4886618E-1,-5.977425E-1,8.267446E-2,1.0328252E0,1.0589295E-1,-3.8041887E-1,2.2679004E-1,3.551862E-2,-7.514368E-1,1.3394895E-1,-6.0488153E-2,-5.3022742E-2,-2.4048434E-1,4.4040176E-1,-5.069173E-2,-5.042409E-2,1.0292187E-1,2.4363462E-2,-2.7153412E-1,-7.322092E-2,1.4980926E-1],"categories":[],"categories_nodes":[],"categories_segments":[],"categories_sizes":[],"default_left":[0,0,0,0,0,0,0,0,0,0,0,0,0,0,0,0,0,0,0,0,0,0,0,0,0,0,0,0,0,0,0,0,0,0,0,0,0,0,0],"id":28,"left_children":[1,3,5,7,9,11,13,15,-1,-1,17,19,21,23,25,-1,27,-1,-1,29,-1,31,33,35,37,-1,-1,-1,-1,-1,-1,-1,-1,-1,-1,-1,-1,-1,-1],"loss_changes":[1.5211594E0,3.3944323E0,2.4119806E0,7.8551784E0,1.9098601E0,3.059886E0,1.03329315E1,1.5236318E0,0E0,0E0,1.8773754E0,1.319122E0,5.308584E0,3.9313574E0,5.5536995E0,0E0,4.520492E-1,0E0,0E0,4.9942327E-1,0E0,3.9020572E0,3.7895513E0,4.4035244E0,3.513783E0,0E0,0E0,0E0,0E0,0E0,0E0,0E0,0E0,0E0,0E0,0E0,0E0,0E0,0E0],"parents":[2147483647,0,0,1,1,2,2,3,3,4,4,5,5,6,6,7,7,10,10,11,11,12,12,13,13,14,14,16,16,19,19,21,21,22,22,23,23,24,24],"right_children":[2,4,6,8,10,12,14,16,-1,-1,18,20,22,24,26,-1,28,-1,-1,30,-1,32,34,36,38,-1,-1,-1,-1,-1,-1,-1,-1,-1,-1,-1,-1,-1,-1],"split_conditions":[1E0,6.3065314E-1,4.0217942E-1,6.0867524E-1,1.4E1,6.628878E-1,1E0,5.504628E-1,5.8036935E-1,-2.9704034E-1,4.038748E-1,1E0,6.584487E-1,4.4930664E-1,4E0,-2.2726211E-1,4.2406487E-1,-2.0506863E-1,1.4886618E-1,5E0,8.267446E-2,4.642857E-1,3.4180602E-1,4.1218138E-1,5.6E2,3.551862E-2,-7.514368E-1,1.3394895E-1,-6.0488153E-2,-5.3022742E-2,-2.4048434E-1,4.4040176E-1,-5.069173E-2,-5.042409E-2,1.0292187E-1,2.4363462E-2,-2.7153412E-1,-7.322092E-2,1.4980926E-1],"split_indices":[28,9,11,9,5,18,1,9,0,0,11,2,9,10,5,0,10,0,0,0,0,14,10,10,7,0,0,0,0,0,0,0,0,0,0,0,0,0,0],"split_type":[0,0,0,0,0,0,0,0,0,0,0,0,0,0,0,0,0,0,0,0,0,0,0,0,0,0,0,0,0,0,0,0,0,0,0,0,0,0,0],"sum_hessian":[1.3085904E2,1.5325039E1,1.15534004E2,6.3257604E0,8.999278E0,7.049074E1,4.5043262E1,5.317955E0,1.0078052E0,5.5584817E0,3.4407964E0,8.073622E0,6.2417118E1,4.2304928E1,2.738335E0,2.7363286E0,2.5816264E0,1.490558E0,1.9502383E0,6.469435E0,1.6041865E0,5.9866385E0,5.643048E1,1.6876749E1,2.5428177E1,1.0254673E0,1.7128676E0,1.4486984E0,1.1329281E0,2.7198384E0,3.7495968E0,4.2325063E0,1.7541324E0,2.6319464E1,3.0111017E1,9.4275465E0,7.4492035E0,9.361381E0,1.6066797E1],"tree_param":{"num_deleted":"0","num_feature":"29","num_nodes":"39","size_leaf_vector":"1"}},{"base_weights":[-2.3437532E-2,2.1527989E-2,-2.7736413E-1,-3.680525E-2,4.3193588E-1,-5.9282154E-1,2.7639565E-1,1.8132296E-1,-2.3372135E-1,5.8095264E-1,-1.9418307E-1,-9.1772026E-1,-1.321669E-1,-6.810204E-1,7.780014E-1,3.7458882E-1,-1.7671254E-1,-2.9617733E-1,8.6061376E-1,-3.9720148E-1,8.182617E-1,-3.1512645E-1,-1.2351018E-2,-4.5884198E-1,1.7919815E-1,5.3851552E-2,-3.6119768E-1,3.0242184E-2,2.9990208E-1,1.8326022E-3,2.5678068E-1,-1.3032791E-1,9.727815E-2,-1.6133401E-1,-1.8624736E-2,5.8298323E-2,3.274437E-1,1.4022136E-1,-3.0559328E-1,-6.2078056E-3,2.7737275E-1,7.563283E-2,-2.1596372E-1],"categories":[],"categories_nodes":[],"categories_segments":[],"categories_sizes":[],"default_left":[0,0,0,0,0,0,0,0,0,0,0,1,0,0,0,0,0,0,0,0,0,0,0,0,0,0,0,0,0,0,0,0,0,0,0,0,0,0,0,0,0,0,0],"id":29,"left_children":[1,3,5,7,9,11,13,15,17,19,-1,21,23,25,27,29,31,33,35,37,39,-1,-1,41,-1,-1,-1,-1,-1,-1,-1,-1,-1,-1,-1,-1,-1,-1,-1,-1,-1,-1,-1],"loss_changes":[1.4984121E0,2.6966026E0,3.611514E0,4.2930346E0,2.629668E0,1.8081222E0,4.2972093E0,3.3540182E0,3.8394675E0,3.3055248E0,0E0,8.1651783E-1,1.8230906E0,1.6698147E0,7.420442E-1,5.5247636E0,2.3791213E0,2.814783E0,2.6284218E-1,2.1848156E0,9.6992445E-1,0E0,0E0,1.1196438E0,0E0,0E0,0E0,0E0,0E0,0E0,0E0,0E0,0E0,0E0,0E0,0E0,0E0,0E0,0E0,0E0,0E0,0E0,0E0],"parents":[2147483647,0,0,1,1,2,2,3,3,4,4,5,5,6,6,7,7,8,8,9,9,11,11,12,12,13,13,14,14,15,15,16,16,17,17,18,18,19,19,20,20,23,23],"right_children":[2,4,6,8,10,12,14,16,18,20,-1,22,24,26,28,30,32,34,36,38,40,-1,-1,42,-1,-1,-1,-1,-1,-1,-1,-1,-1,-1,-1,-1,-1,-1,-1,-1,-1,-1,-1],"split_conditions":[4E0,2.6E1,9.1133004E-1,6.26E2,5.1856905E-1,2.117E3,7.5465107E-1,6E0,6.9937676E-1,7.0271003E-1,-1.9418307E-1,9.299164E-1,9.4169724E-1,7.4709797E-1,2.00001E0,3.58E2,1E0,2E0,3.9839014E-1,2.8731406E-1,1E0,-3.1512645E-1,-1.2351018E-2,3.093891E-1,1.7919815E-1,5.3851552E-2,-3.6119768E-1,3.0242184E-2,2.9990208E-1,1.8326022E-3,2.5678068E-1,-1.3032791E-1,9.727815E-2,-1.6133401E-1,-1.8624736E-2,5.8298323E-2,3.274437E-1,1.4022136E-1,-3.0559328E-1,-6.2078056E-3,2.7737275E-1,7.563283E-2,-2.1596372E-1],"split_indices":[4,5,24,7,10,7,20,0,12,19,0,22,20,19,28,7,8,0,11,11,28,0,0,11,0,0,0,0,0,0,0,0,0,0,0,0,0,0,0,0,0,0,0],"split_type":[0,0,0,0,0,0,0,0,0,0,0,0,0,0,0,0,0,0,0,0,0,0,0,0,0,0,0,0,0,0,0,0,0,0,0,0,0,0,0,0,0,0,0],"sum_hessian":[1.2971016E2,1.10974014E2,1.8736147E1,9.796072E1,1.3013305E1,1.1891461E1,6.844686E0,4.6514633E1,5.144608E1,1.1840119E1,1.1731851E0,6.391407E0,5.5000544E0,2.2302063E0,4.6144795E0,3.0178299E1,1.6336334E1,4.9358444E1,2.0876353E0,2.1801357E0,9.659984E0,5.3787565E0,1.0126504E0,4.0551357E0,1.444919E0,1.0912936E0,1.1389126E0,1.4967531E0,3.1177266E0,1.7666754E1,1.2511546E1,1.0874855E1,5.461479E0,2.3651318E1,2.5707127E1,1.0111508E0,1.0764844E0,1.0153555E0,1.1647803E0,1.1770352E0,8.482948E0,1.0982313E0,2.9569044E0],"tree_param":{"num_deleted":"0","num_feature":"29","num_nodes":"43","size_leaf_vector":"1"}},{"base_weights":[-1.7133575E-2,-3.1138647E-2,1.8165538E-1,-3.3486024E-1,2.4410111E-3,-6.1537534E-1,3.1638828E-1,2.7173743E-1,-5.319607E-2,-7.7557665E-1,5.311408E-2,2.0228668E-1,-6.0430583E-2,-4.071327E-2,1.5170203E0,-6.090299E-1,-3.1691915E-4,-6.670069E-2,-2.642256E-1,-1.683449E-1,7.7700056E-2,5.563322E-1,1.2364527E-1,-2.8885648E-1,-8.04601E-3,1.4028995E-1,-2.5359334E-2],"categories":[],"categories_nodes":[],"categories_segments":[],"categories_sizes":[],"default_left":[0,0,0,0,0,0,0,0,0,0,0,0,0,0,0,0,0,0,0,0,0,0,0,0,0,0,0],"id":30,"left_children":[1,3,-1,5,7,9,11,13,15,17,-1,-1,-1,19,21,23,25,-1,-1,-1,-1,-1,-1,-1,-1,-1,-1],"loss_changes":[1.1394469E0,1.2922839E0,0E0,2.4990115E0,1.7377071E0,1.2996058E0,9.61999E-1,7.7880106E0,2.8260722E0,2.5814724E-1,0E0,0E0,0E0,2.7733405E0,7.303066E-1,1.6948414E0,3.5391538E0,0E0,0E0,0E0,0E0,0E0,0E0,0E0,0E0,0E0,0E0],"parents":[2147483647,0,0,1,1,3,3,4,4,5,5,6,6,7,7,8,8,9,9,13,13,14,14,15,15,16,16],"right_children":[2,4,-1,6,8,10,12,14,16,18,-1,-1,-1,20,22,24,26,-1,-1,-1,-1,-1,-1,-1,-1,-1,-1],"split_conditions":[7.82477E-1,5.138942E-1,1.8165538E-1,1E0,6.3065314E-1,7.058824E-1,3.7787575E-1,6.234667E-1,1E0,4.1E2,5.311408E-2,2.0228668E-1,-6.0430583E-2,4E0,6.895894E-1,1.4E1,1E0,-6.670069E-2,-2.642256E-1,-1.683449E-1,7.7700056E-2,5.563322E-1,1.2364527E-1,-2.8885648E-1,-8.04601E-3,1.4028995E-1,-2.5359334E-2],"split_indices":[12,9,0,3,9,14,9,9,28,7,0,0,0,5,18,5,27,0,0,0,0,0,0,0,0,0,0],"split_type":[0,0,0,0,0,0,0,0,0,0,0,0,0,0,0,0,0,0,0,0,0,0,0,0,0,0,0],"sum_hessian":[1.2750413E2,1.256284E2,1.8757235E0,1.1613589E1,1.1401482E2,8.155724E0,3.4578662E0,1.8857246E1,9.515757E1,6.8018703E0,1.3538529E0,1.8659978E0,1.5918684E0,1.5848138E1,3.009109E0,7.352728E0,8.780484E1,1.5839515E0,5.217919E0,5.4727364E0,1.0375401E1,1.785426E0,1.223683E0,4.16671E0,3.1860182E0,1.26973E1,7.5107544E1],"tree_param":{"num_deleted":"0","num_feature":"29","num_nodes":"27","size_leaf_vector":"1"}},{"base_weights":[-1.2652716E-2,-2.8193524E-1,2.4023008E-2,-5.976331E-1,8.27606E-2,2.9278395E-1,-2.4547698E-2,-2.2944802E-1,-1.2504333E-1,5.1638347E-1,-3.0750012E-1,5.035228E-1,-5.7414067E-1,-2.6398143E-1,7.1620727E-3,-1.6432008E-1,1.0595497E-1,3.6768556E-1,-1.0725467E-1,-1.964068E-1,7.746E-2,3.909375E-3,9.2227244E-1,6.863028E-2,-3.3045107E-1,3.7159696E-1,-3.9739095E-2,-1.6673858E-1,1.21722735E-1,1.0010796E-1,-7.2177224E-2,-1.356456E-1,2.2195132E-1,-2.3903614E-2,3.3509487E-1,-8.523025E-3,5.7817465E-1,-1.5188935E-1,3.5141755E-3],"categories":[],"categories_nodes":[],"categories_segments":[],"categories_sizes":[],"default_left":[0,0,0,0,0,0,0,0,0,0,0,0,0,0,0,0,0,0,0,0,0,0,0,0,0,0,0,0,0,0,0,0,0,0,0,0,0,0,0],"id":31,"left_children":[1,3,5,7,9,11,13,-1,15,17,19,21,23,-1,25,-1,-1,-1,27,-1,29,31,33,-1,-1,35,37,-1,-1,-1,-1,-1,-1,-1,-1,-1,-1,-1,-1],"loss_changes":[1.262264E0,1.8129698E0,1.479756E0,5.6268334E-1,1.5101198E0,3.4576626E0,2.622792E0,0E0,8.7522435E-1,1.9695779E0,6.962067E-1,3.0267882E0,1.885893E0,0E0,1.6215742E0,0E0,0E0,0E0,9.459208E-1,0E0,3.3979836E-1,2.888289E0,1.6254959E0,0E0,0E0,6.78489E0,2.027021E0,0E0,0E0,0E0,0E0,0E0,0E0,0E0,0E0,0E0,0E0,0E0,0E0],"parents":[2147483647,0,0,1,1,2,2,3,3,4,4,5,5,6,6,8,8,9,9,10,10,11,11,12,12,14,14,18,18,20,20,21,21,22,22,25,25,26,26],"right_children":[2,4,6,8,10,12,14,-1,16,18,20,22,24,-1,26,-1,-1,-1,28,-1,30,32,34,-1,-1,36,38,-1,-1,-1,-1,-1,-1,-1,-1,-1,-1,-1,-1],"split_conditions":[1E0,1.1E1,2.67E2,5.093912E-1,2E0,3E0,2.83E2,-2.2944802E-1,2.00001E0,3.75478E-1,2.192E3,1.72E2,8.346361E-1,-2.6398143E-1,2.925221E-1,-1.6432008E-1,1.0595497E-1,3.6768556E-1,2.00001E0,-1.964068E-1,6E1,4E0,7.698557E-1,6.863028E-2,-3.3045107E-1,2.8629023E-1,3.139317E-1,-1.6673858E-1,1.21722735E-1,1.0010796E-1,-7.2177224E-2,-1.356456E-1,2.2195132E-1,-2.3903614E-2,3.3509487E-1,-8.523025E-3,5.7817465E-1,-1.5188935E-1,3.5141755E-3],"split_indices":[26,5,7,10,4,4,7,0,25,10,7,7,20,0,10,0,0,0,25,0,5,5,19,0,0,10,10,0,0,0,0,0,0,0,0,0,0,0,0],"split_type":[0,0,0,0,0,0,0,0,0,0,0,0,0,0,0,0,0,0,0,0,0,0,0,0,0,0,0,0,0,0,0,0,0,0,0,0,0,0,0],"sum_hessian":[1.2612377E2,1.4317055E1,1.1180672E2,7.331686E0,6.9853687E0,1.6343525E1,9.546319E1,4.958933E0,2.3727534E0,3.1557763E0,3.8295927E0,1.34847355E1,2.8587906E0,2.4561913E0,9.3007E1,1.1823585E0,1.1903949E0,1.0249155E0,2.1308608E0,1.6451716E0,2.184421E0,6.608919E0,6.8758163E0,1.3577799E0,1.5010108E0,9.815433E0,8.319157E1,1.0923413E0,1.0385195E0,1.182541E0,1.00188E0,4.3183823E0,2.2905369E0,1.2149003E0,5.660916E0,8.588736E0,1.2266966E0,7.385184E0,7.580638E1],"tree_param":{"num_deleted":"0","num_feature":"29","num_nodes":"39","size_leaf_vector":"1"}},{"base_weights":[-1.0882603E-2,-6.19521E-1,5.0040367E-3,-2.487907E-1,-4.184124E-2,2.4845453E-1,-1.4344456E-2,-5.655861E-2,2.4330801E-1,-1.6144344E-1,1.3381517E-1,6.783141E-1,-8.3006036E-1,-7.790968E-2,8.689014E-2,-3.391498E-2,1.4297463E-1,-9.510132E-2,2.7697015E-1,-1.9928498E-2,-4.9068287E-1],"categories":[],"categories_nodes":[],"categories_segments":[],"categories_sizes":[],"default_left":[0,0,0,0,0,0,0,0,0,0,0,0,0,0,0,0,0,0,0,0,0],"id":32,"left_children":[1,3,5,-1,-1,-1,7,9,11,13,15,17,19,-1,-1,-1,-1,-1,-1,-1,-1],"loss_changes":[1.2181985E0,2.0706916E-1,1.9782885E0,0E0,0E0,0E0,1.336458E0,2.1241875E0,8.644703E0,3.104467E0,3.2653527E0,3.4293103E0,3.238547E0,0E0,0E0,0E0,0E0,0E0,0E0,0E0,0E0],"parents":[2147483647,0,0,1,1,2,2,6,6,7,7,8,8,9,9,10,10,11,11,12,12],"right_children":[2,4,6,-1,-1,-1,8,10,12,14,16,18,20,-1,-1,-1,-1,-1,-1,-1,-1],"split_conditions":[5.972341E-1,1.483E3,2.3025632E-1,-2.487907E-1,-4.184124E-2,2.4845453E-1,1E0,4.4930664E-1,4.330074E-1,4.4518763E-1,7.5E-1,6.545342E-1,8.516092E-1,-7.790968E-2,8.689014E-2,-3.391498E-2,1.4297463E-1,-9.510132E-2,2.7697015E-1,-1.9928498E-2,-4.9068287E-1],"split_indices":[19,7,10,0,0,0,9,10,10,12,23,20,20,0,0,0,0,0,0,0,0],"split_type":[0,0,0,0,0,0,0,0,0,0,0,0,0,0,0,0,0,0,0,0,0],"sum_hessian":[1.2466665E2,2.2047148E0,1.2246194E2,1.0279639E0,1.1767509E0,1.8523109E0,1.2060963E2,1.0430124E2,1.6308382E1,6.734825E1,3.6952988E1,1.186705E1,4.4413314E0,5.5650505E1,1.1697749E1,2.1871233E1,1.5081757E1,2.2853591E0,9.581691E0,2.8356752E0,1.6056563E0],"tree_param":{"num_deleted":"0","num_feature":"29","num_nodes":"21","size_leaf_vector":"1"}},{"base_weights":[-8.652516E-3,1.0739947E-1,-7.72266E-2,-5.145702E-1,2.070044E-1,7.1125954E-1,-1.1026142E-1,-2.3551875E-1,4.0452015E-2,1.0436351E0,1.2079817E-1,2.8443265E-1,3.7489098E-2,1.1979474E-1,-2.044155E-1,1.2690306E-3,5.1628107E-1,-4.6038103E-1,2.8127265E-1,2.947585E-1,-4.3087408E-1,1.283373E-2,-3.652944E-1,-2.1758081E-1,5.4127686E-2,2.3167513E-1,3.5014864E-2,1.5964305E-2,2.0212379E-1,-1.961367E-1,5.7800792E-2,8.472277E-2,-1.5318184E-1,-2.711048E-1,-6.763768E-2],"categories":[],"categories_nodes":[],"categories_segments":[],"categories_sizes":[],"default_left":[0,0,0,0,0,0,0,0,0,0,0,0,0,0,0,0,0,0,0,0,0,0,0,0,0,0,0,0,0,0,0,0,0,0,0],"id":33,"left_children":[1,3,5,7,9,11,13,-1,-1,15,17,-1,-1,19,21,-1,-1,23,25,27,29,31,33,-1,-1,-1,-1,-1,-1,-1,-1,-1,-1,-1,-1],"loss_changes":[9.903176E-1,2.97183E0,2.1139648E0,1.2777413E0,2.8006568E0,3.365296E-1,1.6679001E0,0E0,0E0,2.569211E0,3.6660738E0,0E0,0E0,2.310626E0,1.8992486E0,0E0,0E0,1.5879471E0,2.3608034E0,1.5929728E0,9.420116E-1,3.5348234E0,2.1434898E0,0E0,0E0,0E0,0E0,0E0,0E0,0E0,0E0,0E0,0E0,0E0,0E0],"parents":[2147483647,0,0,1,1,2,2,3,3,4,4,5,5,6,6,9,9,10,10,13,13,14,14,17,17,18,18,19,19,20,20,21,21,22,22],"right_children":[2,4,6,8,10,12,14,-1,-1,16,18,-1,-1,20,22,-1,-1,24,26,28,30,32,34,-1,-1,-1,-1,-1,-1,-1,-1,-1,-1,-1,-1],"split_conditions":[3.4606504E-1,6.234667E-1,6.1347944E-1,1E0,6.527871E-1,9E0,6.3065314E-1,-2.3551875E-1,4.0452015E-2,4.408617E-1,6.310931E-1,2.8443265E-1,3.7489098E-2,5.7894737E-1,4.1218138E-1,1.2690306E-3,5.1628107E-1,2.8E1,6.870614E-1,6.849923E-1,5.1747656E-1,3E0,4.384666E-1,-2.1758081E-1,5.4127686E-2,2.3167513E-1,3.5014864E-2,1.5964305E-2,2.0212379E-1,-1.961367E-1,5.7800792E-2,8.472277E-2,-1.5318184E-1,-2.711048E-1,-6.763768E-2],"split_indices":[11,9,22,3,9,5,9,0,0,10,20,0,0,15,10,0,0,5,20,18,11,4,10,0,0,0,0,0,0,0,0,0,0,0,0],"split_type":[0,0,0,0,0,0,0,0,0,0,0,0,0,0,0,0,0,0,0,0,0,0,0,0,0,0,0,0,0,0,0,0,0,0,0],"sum_hessian":[1.2239832E2,4.5251072E1,7.7147255E1,5.671298E0,3.9579773E1,2.276656E0,7.48706E1,3.85622E0,1.8150778E0,2.6598356E0,3.6919937E1,1.1820288E0,1.0946271E0,2.1664125E1,5.320647E1,